tree
version=v3
num_class=4
num_tree_per_iteration=4
label_index=0
max_feature_idx=56
objective=multiclass num_class:4
feature_names=B0_R2 B0_thrustOm B0_cosTBTO B0_cosTBz B0_KSFWV3 B0_KSFWV4 B0_KSFWV5 B0_KSFWV6 B0_KSFWV7 B0_KSFWV8 B0_KSFWV9 B0_KSFWV10 B0_KSFWV13 B0_KSFWV14 B0_KSFWV15 B0_KSFWV16 B0_KSFWV17 B0_KSFWV18 B0_CC1 B0_CC2 B0_CC3 B0_CC4 B0_CC5 B0_CC6 B0_CC7 B0_CC8 B0_CC9 D_K_kaonID_binary_noSVD D_pi1_kaonID_binary_noSVD D_pi2_kaonID_binary_noSVD D_K_dr D_pi1_dr D_pi2_dr D_K_dz D_pi1_dz D_pi2_dz D_K_pValue D_pi1_pValue D_pi2_pValue D_vtxReChi2 D_A1FflightDistanceSig_IP D_daughterInvM_0_1 D_daughterInvM_1_2 B0_vtxDDSig B0_Lab5_weMissPTheta B0_vtxReChi2 B0_flightDistanceSig B0_nROE_Tracks_my_mask B0_nROE_NeutralHadrons_my_mask B0_roel_DistanceSig_dis B0_roeDeltae_my_mask B0_roeEextra_my_mask B0_roeMbc_my_mask B0_roeCharge_my_mask B0_nROE_Photons_my_mask B0_nROE_K B0_TagVReChi2IP
feature_infos=[0.00019188022997695953:0.91856163740158081] [0.52079445123672485:1] [4.8889887693803757e-07:0.99999958276748657] [4.2606143324519508e-06:0.99999606609344482] [0:1.0291941165924072] [-0.80429399013519287:0.90735578536987305] [-0.3232780396938324:0.89196532964706421] [-0.67040681838989258:0.84467059373855591] [-0.2868073582649231:0.79437720775604248] [0:0.97793865203857422] [-0.31365257501602173:0.69564622640609741] [-0.22061614692211151:0.57406347990036011] [-0.19903439283370972:0.46169009804725647] [0.00075202540028840303:0.26933422684669495] [-0.043251853436231613:0.068442769348621368] [-0.022522192448377609:0.12264160066843033] [-0.034610860049724579:0.047621514648199081] [-0.029972197487950325:0.099712952971458435] [0:7.9385757446289062] [0:8.7599010467529297] [0:7.6155757904052734] [0:8.3667669296264648] [0:6.722712516784668] [0:6.5125017166137695] [0:6.368891716003418] [0:5.5055994987487793] [0:6.3909940719604492] [0.10000420221207997:1] [0:0.89987099051193276] [0:0.89992247175852902] [9.962371610461976e-10:1.9723392108490176] [5.4644857206487561e-09:1.9767139708255295] [2.5352160399259067e-08:1.9778036685120786] [-3.9555089500672622:3.9641459432035138] [-3.8873084875363042:3.979988230544421] [-3.8110225414772496:3.9762774938055561] [0:1] [0:1] [0:1] [0.0011993906232090701:12.999640495783913] [-14.96408975264678:145.75737209505789] [0.6332961250054967:1.7299948685321433] [0.2791409125878625:1.3757558554082572] [0.015041788308138421:147.60699535776837] [0.29672111349764829:2.7924807727315284] [0.015523558258166139:13.998413649350956] [-152.63196628242028:107.87086482713725] [0:18] [0:9] [-1:550.80798929231526] [-4.9959195140696497:1.9999971702039785] [0:7.6952078032476514] [5.0000015134733955:5.2897503943414366] [-2:2] [0:27] [0:6] [9.811463735260562e-09:96.245464137723246]
tree_sizes=7667 7709 7698 7668 7724 7785 7768 7776 7745 7788 7808 7785 7762 7823 7833 7833 7805 7827 7839 7862 7820 7822 7880 7883 7841 7876 7867 7882 7839 7846 7818 7868 7851 7845 7885 7868 7881 7862 7868 7838 7882 7853 7846 7904 7862 7874 7860 7865 7869 7876 7930 7867 7855 7878 7923 7929 7847 7878 7880 7884 7909 7896 7891 7906 7890 7912 7933 7869 7851 7879 7896 7893 7837 7897 7922 7924 7881 7898 7883 7928 7877 7885 7891 7906 7875 7885 7906 7870 7887 7941 7908 7909 7849 7892 7909 7912 7856 7904 7884 7919 7870 7915 7892 7860 7830 7918 7948 7929 7889 7878 7898 7926 7859 7921 7914 7955 7897 7911 7932 7947 7881 7926 7912 7899 7853 7933 7932 7910 7901 7900 7943 7922 7927 7904 7878 7931 7907 7920 7921 7903 7882 7920 7907 7879 7883 7884 7911 7922 7879 7919 7871 7922 7800 7902 7879 7896 7839 7895 7912 7925 7827 7894 7885 7880 7857 7885 7910 7930 7904 7924 7907 7961 7866 7891 7907 7899 7888 7921 7926 7875 7851 7906 7917 7888 7902 7930 7955 7922 7864 7867 7935 7900 7897 7921 7907 7918 7883 7916 7955 7924 7906 7945 7953 7916 7858 7919 7899 7890 7871 7945 7945 7908 7856 7930 7977 7964 7876 7954 7966 7933 7852 7951 7923 7908 7815 7955 7906 7917 7864 7917 7916 7924 7881 7964 7860 7912 7915 7920 7938 7941 7913 7904 7895 7905 7888 7951 7940 7915 7862 7947 7958 7931 7856 7928 7939 7926 7815 7957 7935 7922 7875 7903 7832 7939 7851 7914 7912 7870 7872 7928 7912 7950 7825 7937 7969 7926 7787 7914 7924 7932 7882 7912 7872 7859 7834 7939 7918 7889 7880 7912 7866 7809 7856 7905 7954 7925 7862 7951 7932 7893 7870 7953 7925 7920 7857 7923 7931 7929 7856 7870 7950 7845 7848 7836 7904 7950 7882 7928 7971 7932

Tree=0
num_leaves=70
num_cat=0
split_feature=50 52 39 50 39 0 0 54 52 50 52 52 40 52 40 39 40 39 45 42 40 54 50 13 50 13 54 40 40 54 12 50 0 42 3 27 42 30 32 40 39 52 27 40 27 0 45 13 39 39 27 30 40 2 45 52 0 52 50 39 2 39 50 0 50 49 39 40 52
split_gain=718397 513439 187584 178465 123654 76588.8 74937.4 32692.1 32466.8 50849.8 32379.3 30824.8 27975.9 20513.2 18837.3 18747.8 15792.4 14526.4 12231.2 11146.6 10648.8 10033.6 9896.25 9572.3 8841.07 8816.28 8251.61 7880.51 7759.76 7622.14 7488.12 6178.84 5913.14 5444.85 5306.4 5244.78 5236.89 5053.19 4789.71 4726.27 4700.78 4719.67 4679.48 4627.43 4381.87 4126.74 4101.6 3864.28 3667.06 3419.03 3350.47 3257.05 3246.69 3137.02 3107.76 3033.18 3000.63 2986.88 5100.13 3067.84 2853.97 2831.85 2679.31 2666.18 2646.44 2560.17 2506.15 2500.75 2478.25
threshold=0.16506879359856577 5.2393991916604792 3.8059825878112092 -0.79432344097592844 3.2913432134824245 0.26099692285060888 0.30602785944938665 5.5000000000000009 5.2534841369983694 0.60839514864818878 5.2006021316651863 5.2667058615150451 2.3154663780144986 5.1793992238844808 1.639284964015572 2.2466436189217265 2.2750508596353813 3.0215405332960894 3.9391656002081112 1.2017088570045447 1.5703744656380618 7.5000000000000009 -1.4241631376849411 0.0646246373653412 -0.44230632310256185 0.059035958722233779 9.5000000000000018 0.87902755135327382 2.2376959103121266 7.5000000000000009 0.055266046896576888 -0.99400346659229466 0.2298865616321564 1.149079794593997 0.62128072977066051 0.98902739026762243 1.1562958507332255 0.014193447172241436 0.011207644123780138 2.2750508596353813 2.4524275031814184 5.1581280074755371 0.95986476040490498 1.4244084554769947 0.99999853236960956 0.37264330685138708 2.8280665970579801 0.062115658074617393 2.1346391597262215 5.1658181965912391 0.99895616312297753 0.0089303547461091273 1.3852557622925603 0.69656279683113109 2.8022423949005622 5.134823212180156 0.19741377234458926 5.2225927032946418 0.62166971328833098 3.1358620524125604 0.7677178978919984 1.6670219486229143 0.90280969337909556 0.2087666988372803 -0.40309653096394576 1.0964166322684659 4.988760913204529 1.9594643036142869 5.2689389422369262
decision_type=2 2 2 2 2 2 2 2 2 2 2 2 2 2 2 2 2 2 2 2 2 2 2 2 2 2 2 2 2 2 2 2 2 2 2 2 2 2 2 2 2 2 2 2 2 2 2 2 2 2 2 2 2 2 2 2 2 2 2 2 2 2 2 2 2 2 2 2 2
left_child=1 3 6 4 5 7 11 18 57 17 40 14 19 22 21 24 33 26 23 37 29 35 43 27 60 34 52 50 42 31 44 -13 51 63 45 -3 -23 49 -14 -17 41 -5 -15 -9 -8 -7 -16 54 -31 -4 -1 -18 -10 -35 -44 -24 -21 -2 59 -59 -12 -37 -11 66 -43 -52 -6 -19 -46
right_child=8 2 12 10 16 25 30 13 9 62 15 20 38 28 46 39 32 67 -20 56 -22 36 55 -25 -26 -27 -28 -29 -30 48 -32 -33 -34 53 -36 61 -38 -39 -40 -41 -42 64 47 -45 68 -47 -48 -49 -50 -51 65 -53 -54 -55 -56 -57 -58 58 -60 -61 -62 -63 -64 -65 -66 -67 -68 -69 -70
leaf_value=-1.0764747542981108 -1.7033330821919141 -1.0576600124253082 -1.3392886117935665 -1.6338838690533066 -1.4225116570330882 -1.0823952117955373 -1.370334379398839 -1.198787387158623 -1.0062797982192879 -1.5405267031459171 -0.90842954014867994 -0.71485378712922643 -1.07842992030591 -1.318350515299215 -0.53782562154912428 -1.596202333013067 -1.255925362089096 -1.5380119184958971 -1.1128697104721748 -0.9491074765193106 -0.41394930865684343 -1.116034364193965 -1.4659517913278544 -1.1087786794286434 -1.3399738987316292 -1.6521190506407031 -1.308254190939788 -0.59028313337579075 -0.69475747762521367 -0.67959421721256363 -1.5646310602830491 -0.43656426170696949 -1.4950644235910322 -1.2478831782669924 -1.544054225212224 -0.64085369546829352 -0.81016138754270728 -1.1886382763263776 -0.68835508730974571 -1.2504299194234234 -1.6903194542679822 -1.3474634830521852 -0.83800243177428579 -0.90008143922632167 -1.1569884738819745 -1.4608061618349488 -0.7704364983731945 -1.2170706624300778 -0.97156272972003432 -1.550787572441914 -0.86722500888630449 -0.88392462424627261 -0.7088608256875043 -1.5308689139360179 -1.1232088952217234 -1.2298117684530272 -1.3376724413457703 -1.4222751394426618 -1.687568993888503 -1.6549779851583071 -1.2145670551781464 -0.84401044861922947 -1.7013573722461599 -1.6853206316751681 -1.5539329757053679 -0.62211249331332608 -1.5981124471562733 -1.1443820001778251 -0.78625409491269171
leaf_weight=7266.5926867425442 448147.97311800718 8226.1986376941204 16826.70616838336 84505.236586928368 19230.409764647484 14054.945299059153 8188.9501112103462 19011.607148915529 13286.531203716993 22723.438238114119 14893.688860476017 18319.25276812911 9246.2358040511608 6371.5856375694275 49965.41084754467 41910.347803533077 6577.8852881491184 13118.001104831696 15444.081863790751 10232.410655766726 81912.943261682987 28611.052953720093 21286.373648136854 9645.0297594666481 30807.675702244043 22620.548671007156 9918.533203959465 52933.312738567591 18581.29507753253 30550.06105235219 10427.509759128094 42837.132555544376 6558.6098186969757 13274.288683414459 11583.256693392992 31752.69423109293 13080.752486407757 10120.144069671631 11155.809927433729 7432.7785693407059 121600.10152980685 17017.898218244314 29019.484484225512 14782.724675416946 6420.0347683131695 6850.8676609694958 16167.172407448292 7324.1586793065071 8956.8432421386242 45089.237765997648 17680.296999275684 8880.2623247504234 10628.860247343779 11857.8019503057 7797.9706603288651 14707.706717431545 4590.9487161636353 23655.693892419338 85058.233968704939 14754.59296348691 7288.7334817945957 17002.008695036173 62379.858671724796 31817.553927719593 23983.637484550476 11254.010653227568 40598.052697330713 3206.500924795866 5290.8567118942738
leaf_count=14327 1320858 16276 45988 202505 53805 26043 23559 35377 20053 56281 17169 19602 19199 15884 28553 135555 15185 40634 20933 16780 32867 51822 43324 17216 59292 79367 16721 33693 13548 26996 34921 22510 20338 30413 37181 25057 12452 23748 12030 15653 411760 33586 31988 15113 14478 20453 14009 14346 14914 149768 21716 11159 8161 36808 11220 25138 12636 48158 240354 49433 14508 23038 174935 116787 54764 9038 137195 6282 7463
internal_value=-1.32333 -1.14412 -0.819644 -1.34169 -1.17428 -1.0331 -0.687074 -0.940059 -1.64642 -1.47015 -1.55585 -0.63443 -1.2865 -1.07047 -0.759908 -1.36661 -1.48778 -1.15073 -0.781517 -1.38548 -0.521182 -0.870705 -1.2235 -0.729742 -1.20143 -1.46038 -1.00118 -0.688764 -0.915961 -0.608473 -1.29018 -0.519873 -1.17712 -1.54637 -1.32678 -0.761533 -1.01999 -1.45051 -0.864981 -1.54405 -1.63421 -1.57982 -0.997394 -1.06803 -1.14621 -1.20655 -0.594643 -0.951138 -0.745707 -1.49336 -0.832851 -1.04201 -0.873962 -1.38127 -0.898323 -1.36937 -1.06967 -1.68812 -1.6329 -1.51175 -1.00888 -0.711634 -1.65845 -1.59161 -1.46831 -0.771778 -1.54172 -1.4605 -0.989221
internal_weight=0 1.28142e+06 484970 796451 447011 308216 377709 253106 706878 135262 349440 347382 107261 138883 164805 102333 138795 50158.4 114223 86859.4 182576 98672.7 69788.4 98779.2 52990.1 55109.6 33833.9 89134.2 69094.5 100663 30327.4 61156.4 22016.8 116778 32489.1 56980.9 41691.8 72036.1 20402 49343.1 247107 125507 50513.2 33794.3 19899.8 20905.8 66132.6 44141.6 39506.9 61915.9 36200.9 15458.1 23915.4 25132.1 36817.5 35994.1 14823.4 571616 123469 38410.3 22182.4 48754.7 85103.3 91646 41001.5 28934.3 59828.5 16324.5 11710.9
internal_count=4482923 2501053 648666 1852387 907595 485905 368517 322861 1981870 323067 944792 288096 280149 205938 171207 242177 421690 91851 116923 248920 116889 128645 118952 95990 90969 163044 44935 78774 86986 84022 80421 42112 46682 375008 83677 64371 64274 219504 31229 151208 702615 290855 73438 50490 45500 46496 42562 57554 41910 195756 45081 26344 28214 67221 43208 68462 29416 1658803 337945 97591 31677 48095 231216 307787 88350 30754 191000 46916 21941
is_linear=0
shrinkage=1


Tree=1
num_leaves=70
num_cat=0
split_feature=0 0 0 13 13 27 27 27 15 39 39 40 27 0 0 40 0 27 27 40 40 43 52 50 3 52 0 40 13 13 34 40 3 34 2 34 13 50 3 47 43 39 0 15 39 40 3 15 50 52 39 0 13 39 0 39 52 45 3 45 0 35 39 3 47 47 39 34 40
split_gain=1.861e+06 162520 143837 58199.4 46292.4 24469 23482.5 23106.9 18393.3 15120 14946 14624.2 13729.1 12036.1 10786.9 7789.96 7773.92 7771.37 7205.17 6150.42 5803.82 5336.78 5205.38 5084.99 4698.02 4343.97 4229.59 3999.14 3896.43 3850.76 3844.81 3766.34 3545.67 3451.84 3437.74 3392.1 3202.37 2969.05 2954.62 2797.64 2749.42 2657.84 2601.86 2572.28 2570.45 2470.28 2426.34 2204.17 2173.59 2116.04 2098.19 2070.69 1996.25 1944.45 1926.62 1907.5 1888.96 1776.23 1762.31 1740.7 1609.5 1602.69 1545.93 1539.4 1518.69 1441.28 1408.78 1346.55 1335.33
threshold=0.23894401639699939 0.16260389983654025 0.33205106854438787 0.0778208263218403 0.079605180770158782 0.99999609963041736 0.95370816204478681 0.8410754935726108 0.01640725135803223 3.3728795882585838 2.9847229063158784 0.59878120536288437 0.98731967534581788 0.11197546124458314 0.10805341973900796 0.97112846291919663 0.20487993210554126 0.99999967537045487 0.99999984119097862 1.0496336282764152 0.46532296995785905 2.3214742197051108 5.2479402733613201 0.38172020406547663 0.68697822093963634 5.2422236059547895 0.11197546124458314 0.86377202279583964 0.072129730135202422 0.056032480672001846 0.024556391770871485 1.114873592933723 0.72351214289665233 -0.013911851907779936 0.77121934294700634 0.016579748013380618 0.08717618510127069 0.31763625113514277 0.54760172963142406 8.5000000000000018 2.0133489028619524 2.7060292272808164 0.19394531846046451 0.01109001971781254 2.6726681834913841 0.97112846291919663 0.65020614862442028 0.0086904419586062449 0.47303232450527594 5.2372244443646112 2.7376349936723723 0.28256781399250036 0.054599396884441383 2.7060292272808164 0.42706048488616949 3.4149759117533987 5.243606816114073 2.1595046723935543 0.4957644939422608 2.0063794217323294 0.44373413920402532 0.0099158067195255998 2.3624865647605309 0.62128072977066051 5.5000000000000009 8.5000000000000018 1.8532044330347757 0.032900469120921254 1.345498552505586
decision_type=2 2 2 2 2 2 2 2 2 2 2 2 2 2 2 2 2 2 2 2 2 2 2 2 2 2 2 2 2 2 2 2 2 2 2 2 2 2 2 2 2 2 2 2 2 2 2 2 2 2 2 2 2 2 2 2 2 2 2 2 2 2 2 2 2 2 2 2 2
left_child=1 7 3 5 6 15 24 14 17 20 22 13 42 41 40 38 27 67 43 46 32 48 29 44 45 52 -13 37 34 58 51 47 49 -17 -10 -18 55 -14 66 62 -1 -9 -6 -5 -15 -3 57 -12 -16 -8 -35 -20 54 -27 -19 -28 63 -11 -7 -43 -36 -31 -25 -22 -46 -39 -2 -4 -69
right_child=2 4 8 18 12 10 9 11 28 19 31 26 16 23 21 33 35 25 30 -21 56 -23 -24 39 -26 53 36 -29 -30 61 -32 -33 -34 50 60 -37 -38 65 -40 -41 -42 59 -44 -45 64 -47 -48 -49 -50 -51 -52 -53 -54 -55 -56 -57 -58 -59 -60 -61 -62 -63 -64 -65 -66 -67 -68 68 -70
leaf_value=-1.4926958479297336 -1.0038754577765756 -1.1133748612467187 -0.37965784763727795 -0.64455521914409442 -0.98076299381827425 -1.4588106831444128 -1.4048254796318407 -1.6864330738381352 -0.81317420127975315 -1.1073585556620174 -0.95524501936592932 -1.7264004672659565 -1.3574884997931516 -1.6157097556866837 -1.2983201858796323 -0.66762886174682956 -0.89705692256376457 -0.8525815815204183 -0.75159601243162599 -1.4742582766924723 -1.5987929314161826 -1.4726421442218629 -1.5105771726097179 -1.4168414099232414 -0.91551199633578539 -1.0879788470008005 -1.7019123678704604 -1.401014749446166 -0.25760917444744025 -0.92453527845541172 -0.91978655612826654 -1.1505792360132816 -1.1890089317201613 -1.2317835923736711 -0.47430235037543933 -1.1773781298675052 -1.5402421678917595 -1.0037731297539443 -0.5623679822672768 -1.5397892588594257 -1.6355643898860837 -1.5345443221254735 -0.71608331143068682 -0.42996931654691783 -1.3988746324179533 -1.3974336616194867 -1.0125908895112916 -0.65552382492673245 -1.0492380902591671 -1.6029137989184796 -0.90763486328390375 -0.52118330835836413 -0.48825326056201801 -0.71367840433528162 -0.48354161009591434 -1.6002558594734886 -1.6836813097963248 -1.3343590401085232 -1.1816213403653815 -1.6394720676769297 -0.28968877038910223 -1.2023524409293134 -1.2245103136647681 -1.4302599963979141 -1.5548099127080248 -1.2793126406168194 -0.72284722856601469 -0.39203538291865536 -0.71929119077285097
leaf_weight=37153.191598713398 4560.1303652226925 11821.710636407137 27376.911194711924 12600.466095238924 11061.856888204813 10153.561186313629 20771.099074214697 170076.93691048026 3162.6547991037369 8172.6486572921276 9063.8071252703667 430474.14662802219 8936.2827997803688 55729.411131531 16379.068665146828 3524.0578209459782 16234.406639993191 6933.6965931952 13254.217565566301 21030.432178735733 43365.091681003571 25603.919696420431 15750.772373914719 12701.780156880617 12126.408179372549 5279.4081960618496 126983.78168684244 23067.04171204567 105495.41535624862 6491.645701944828 11672.008162915707 8758.1015941202641 7756.3044299483299 8713.2413518428802 14142.351688086987 12109.522638231516 32310.290355563164 12511.753552347422 15472.032604187727 13386.782485276461 51684.921614259481 35727.2372623384 13071.247744977474 32254.088205218315 18608.224956542253 8330.920222401619 8426.1852566599846 7048.3676125705242 8560.5142472088337 14813.493386894464 5084.8452015817165 12112.546778261662 11911.179238647223 3893.7776855826378 3427.5324424505234 38804.204297423363 35769.075067251921 17095.5741982162 5743.8892499506474 88271.561999797821 17115.735984265804 6912.7786151766777 14075.061123460531 10906.358124524355 21718.458588033915 4055.8293924033642 7954.899529337883 3815.1460111737251 4399.0867057144642
leaf_count=124645 11700 38984 102137 45730 38915 13629 44386 292127 8283 29333 30553 638608 27399 85698 54545 11186 52875 19213 44110 49518 54201 68867 16607 30638 40642 10612 129249 53854 409633 18166 35242 22707 19021 16407 48854 34119 76535 41135 56315 39807 141805 121268 47998 120529 57570 17727 29698 25405 32175 17348 16700 43553 43359 12277 11788 97863 25029 54657 11754 278204 64650 15613 50018 19742 69992 12936 29066 14627 13387
internal_value=-1.37415 -1.5773 -0.611473 -0.856034 -1.32475 -1.03931 -1.42752 -1.64505 -0.378542 -1.48162 -1.18775 -1.66521 -1.10056 -1.60836 -1.49191 -0.810293 -1.18322 -0.551022 -0.598188 -1.30462 -1.55427 -1.34444 -1.32523 -1.51002 -1.11236 -0.696268 -1.70411 -1.28045 -0.295926 -1.2255 -0.729075 -0.938832 -1.43391 -1.02149 -0.413453 -1.01671 -1.65566 -1.17128 -0.679691 -1.39042 -1.57585 -1.65391 -0.837272 -0.490179 -1.56 -1.23096 -1.19864 -0.823932 -1.21269 -1.48738 -1.1121 -0.641449 -0.600661 -0.928749 -0.730193 -1.67814 -1.61217 -1.26081 -1.35886 -1.60927 -0.373113 -1.06757 -1.31586 -1.56498 -1.48293 -1.07103 -0.82499 -0.422784 -0.566906
internal_weight=0 1.51968e+06 404078 197125 321433 115232 220385 1.19825e+06 206953 188106 69922.9 1.05887e+06 101048 430295 139382 45309.2 76914.8 67036.7 81893.3 54724.8 133381 50543.5 45052.6 136220 32279 31445.6 628572 48570.9 139916 29301.9 37038.8 24870.3 43340.9 17322.1 34420.7 28343.9 198098 25503.9 27987.1 40163.6 88838.1 294076 24133.1 44854.6 96056.1 20152.6 33694.4 16112.2 24939.6 35584.6 13798.1 25366.8 22272.4 9173.19 10361.2 165788 90040.5 25268.2 15897.5 123999 31258.1 13404.4 26776.8 54271.4 40326.7 16567.6 12515 35591.1 8214.23
internal_count=4482923 3139131 1343792 584972 749517 295808 440286 2389614 758820 342933 154434 1967577 309231 1025322 422037 141374 222318 227400 289164 163206 179727 155587 75769 333723 97353 97249 942255 135324 531420 59162 122905 78665 80755 44293 121787 86994 303647 81470 97081 120463 266450 691599 86913 166259 213260 56711 113688 55958 86720 61734 33107 87663 74360 22889 31001 227112 98972 83990 25383 399472 113504 33779 80656 73943 127562 54071 40766 130151 28014
is_linear=0
shrinkage=1


Tree=2
num_leaves=70
num_cat=0
split_feature=39 0 43 43 1 42 39 39 0 0 42 42 27 40 40 13 13 0 13 0 13 0 39 27 15 47 40 39 42 13 39 15 13 15 39 29 39 47 40 27 40 47 1 32 30 43 54 13 52 13 29 13 27 41 39 47 42 31 40 40 13 15 52 54 50 52 52 0 27
split_gain=601843 408830 93335.9 75219.2 59567.5 52489.7 47994.2 35116.9 30417.4 28071.9 23755.4 16427.3 15495.7 14295.7 13379.9 11344.9 10963.5 9396.13 9366.65 7353.38 7323.96 6645.72 6592.13 6502.15 6352.54 6065.91 6047.84 5416.11 5093.31 4898.45 4853.5 4644.73 4322.64 4250.79 3887.82 3795.31 3772.86 3429.53 3419.14 3405.94 3280.04 3278.11 3081.67 2960.23 2794.79 2709.42 2598.13 2556.4 2528.06 2401.1 2393.93 2350.4 2342.73 2285.34 2242 2206.78 2197.29 2053.31 1999.24 1909.77 1862.43 1858.47 1850.39 1846.88 2029.91 2157.02 1845.97 1808.86 1718.8
threshold=3.0578557575934666 0.21684128791093829 4.3016171676661843 8.1224661695052998 0.75765517354011547 1.1413449098378838 4.931177003560939 1.6008777358599535 0.29414440691471105 0.14343889802694323 1.1260613422103545 1.1865227034238368 0.99994708805138233 1.3090219029757006 0.79165563766709424 0.059356139972805984 0.052293410524725921 0.27161295711994177 0.051481049507856376 0.19228595495224002 0.068259272724390044 0.15200997143983844 1.8775242276102586 0.99996867818061186 0.0091652534902095812 6.5000000000000009 1.5703744656380618 1.6008777358599535 1.0880926693272361 0.058725703507661826 6.7079220642417292 0.007268032059073449 0.059356139972805984 0.012993641197681429 4.8708199374316159 2.7996893376394097e-06 1.4932908752498057 6.5000000000000009 1.2001407695672512 0.44845165547708671 1.7350752502979483 7.5000000000000009 0.75332602858543407 0.014491672110408178 0.028933698949422045 7.3869312926148236 8.5000000000000018 0.069000065326690688 5.2563062635383444 0.063299287110567107 3.611855618667936e-07 0.02800063788890839 0.99387102919264447 1.401428403889776 1.7808334138084587 6.5000000000000009 1.0648155430064119 0.010928960211610798 1.9914485538792339 1.4244084554769947 0.03175709396600724 0.0078060710802674302 5.2631476221673674 9.5000000000000018 0.36857089343739885 5.2660121414359589 5.2652723767939369 0.10614944249391557 0.85653348407989538
decision_type=2 2 2 2 2 2 2 2 2 2 2 2 2 2 2 2 2 2 2 2 2 2 2 2 2 2 2 2 2 2 2 2 2 2 2 2 2 2 2 2 2 2 2 2 2 2 2 2 2 2 2 2 2 2 2 2 2 2 2 2 2 2 2 2 2 2 2 2 2
left_child=2 3 4 6 5 7 10 12 24 11 16 18 25 34 27 52 58 28 51 23 50 26 47 67 55 46 66 68 36 -12 -15 37 -13 -10 -5 53 -6 60 62 -27 48 63 56 -32 -34 54 -1 -7 -31 -24 -14 -8 -9 -22 -16 -3 -29 -28 -2 -41 -11 -23 -25 64 65 -20 -18 -17 -4
right_child=1 8 14 13 17 22 9 15 33 31 29 32 20 30 45 19 21 -19 41 -21 35 61 49 38 -26 39 57 42 -30 40 43 -33 44 -35 -36 -37 -38 -39 -40 59 -42 -43 -44 -45 -46 -47 -48 -49 -50 -51 -52 -53 -54 -55 -56 -57 -58 -59 -60 -61 -62 -63 -64 -65 -66 -67 -68 -69 -70
leaf_value=-1.4547014795294451 -1.1049908620672635 -1.3063118953071089 -1.4362265493766257 -1.3081739219416662 -1.5693698892150965 -1.6745020518705855 -1.1340440632265643 -1.1313179688855741 -1.5589171370785633 -1.2298518233502675 -1.4504298592708251 -1.1436672399822421 -1.5942609137918735 -1.6179978549595353 -1.7150032360699086 -0.79887682572962015 -0.71068437701237841 -1.7191064752477223 -0.59340226862474466 -1.3722926281100747 -1.495472931410988 -0.95462357365121386 -1.5492529488154994 -0.9979685826775968 -1.4746821988084733 -0.90459776480611431 -0.92991989815352794 -1.2395530839165119 -1.657452261110679 -1.0223848022768591 -1.0711109162839791 -1.0717991602988235 -0.75012409364186494 -1.7221937167051871 -0.85514624000410155 -1.2000561090256672 -1.4048322648927147 -0.73623962528413844 -1.2764873911085095 -1.1461655126405177 -1.4250284383223439 -0.49954390397940474 -1.597123079409045 -1.4918684069812369 -1.0876625917949028 -1.757205031362695 -1.2496454199091418 -1.5580062683881188 -1.3498054902838421 -1.3458084164291426 -1.4239202871615197 -0.7768830201067134 -1.3603804938249244 -1.3290429193905466 -1.5955240705286515 -1.0940934302147602 -1.5019424127697512 -1.2614678823817631 -1.4180197814160154 -1.3907245037559977 -0.91580913249269869 -1.2038738287637516 -1.2519448093898156 -0.55509285558894039 -0.84007936298649699 -0.90183452928593411 -0.92806222864076227 -0.99776730876836806 -1.6525721838595813
leaf_weight=21738.565314471722 20507.635087788105 29457.47955173254 6589.6422004699707 4763.8296765089035 56175.489621162415 67791.012551248074 3378.5313259959221 9178.2597694396973 35506.957892775536 3422.9592487215996 14795.507881641388 9636.5956140756607 61315.828187227249 22252.62481045723 100509.303637743 19589.206440985203 50301.461278438568 101464.8747729063 29885.443389832973 10452.613503336906 32494.645032346249 11615.019045293331 16064.339792191982 28056.619380235672 40078.517369449139 7939.5485298037529 10081.87889957428 13177.778421163559 55172.975182592869 17192.356992602348 5133.8114413022995 27542.057956337929 18027.70246130228 91533.095991969109 8417.964660346508 14886.371445000172 37054.155761122704 19654.467553973198 13817.340040326118 23195.901892781258 6117.2503470182419 63931.550415635109 11585.902751922607 5572.5688614249229 5068.2990697026253 221304.8560770154 18123.335729897022 54635.321333765984 4861.9727919101715 21939.871657252312 16885.880021870136 24991.342414617538 32405.789008080959 22202.172161757946 33748.918765068054 10717.675089240074 8327.3520868420601 4289.4296680688858 3861.7166667580605 6520.3648488521576 27943.917479276657 8237.7428159117699 5535.9220111966133 37009.475567936897 9702.107638657093 4194.5495870709419 7251.0411233901978 11888.112845242023 57276.90142506361
leaf_count=47550 53428 97936 15991 10010 96632 65857 9641 26329 129713 10370 22043 21139 73445 25024 111944 62050 172738 342494 107083 36865 60037 40203 21323 81469 144640 26490 27441 30834 65113 50021 12620 98853 57821 356935 26727 38112 87358 71762 28513 61386 10448 235319 27450 7753 12443 257293 48656 93753 8226 47800 28337 79260 59840 50109 49712 37889 14047 8351 5552 12052 98408 27569 10610 136738 35473 10511 19160 39738 84486
internal_value=-1.38026 -1.08396 -1.54997 -0.884622 -1.46492 -1.38737 -0.834054 -1.30181 -1.5548 -0.735614 -1.01002 -0.657947 -1.39754 -1.37075 -1.69402 -1.13706 -0.916004 -1.62526 -0.608778 -1.05672 -1.47352 -0.852651 -1.57736 -1.01494 -1.36205 -1.25271 -0.796045 -1.56224 -1.56108 -1.26423 -1.51149 -0.939132 -0.918053 -1.67658 -1.01863 -1.37917 -1.50401 -0.867579 -1.10866 -1.13758 -1.16632 -0.567531 -1.43078 -1.29041 -0.824057 -1.72995 -1.36155 -1.62254 -1.09442 -1.43172 -1.55752 -0.819304 -1.30975 -1.42786 -1.68499 -1.24962 -1.34131 -1.02865 -1.15473 -1.19993 -0.949978 -1.05789 -1.03973 -0.621371 -0.677469 -0.63127 -0.738016 -0.873891 -1.6303
internal_weight=0 696937 1.21905e+06 489643 766525 516657 443502 356226 207294 284389 159113 205826 225303 46140.8 452521 130924 116146 249867 173093 89339.8 147785 91776.6 160431 78887.2 80253.7 77517.7 71923.8 96957.6 148403 42967.1 32959 78563.4 32732.6 127040 13181.8 69583.2 93229.6 51021.3 47409.9 37655.8 28171.6 144723 33091 10706.4 23096 355563 39861.9 122426 22054.3 38004.2 78201.7 28369.9 41584 54696.8 134258 40175.2 21505.1 14371.3 24369.4 29716.3 31366.9 19852.8 33592.5 80791.6 43782.1 34080 57552.5 31477.3 63866.5
internal_count=4482923 2279248 2203675 1512135 1611918 1020321 1430001 791588 767113 984821 445180 705428 446174 82134 591757 345414 354442 591597 614025 259245 250040 295462 228733 222380 280465 196134 227690 172808 249103 90738 45397 279393 91403 486648 36737 148258 183990 180540 120592 99928 68695 525124 72331 20373 70264 418949 96206 159610 58247 69123 101782 88901 86169 110146 161656 135825 44881 35792 58980 73438 108778 67772 92079 289805 153067 117594 191898 101788 100477
is_linear=0
shrinkage=1


Tree=3
num_leaves=70
num_cat=0
split_feature=39 50 0 52 27 0 50 43 27 0 42 43 45 42 50 52 43 0 54 43 52 39 40 50 52 0 27 40 39 27 43 54 42 45 40 39 50 40 39 50 52 39 50 27 40 40 13 50 13 47 39 27 40 52 5 52 40 39 52 43 50 30 5 47 45 45 50 40 0
split_gain=300242 264922 191608 92995.8 80707.8 69538.5 62291.4 31942.2 26723.8 24229 21759.3 18864.6 16840 16433.7 16055.1 17709.3 15439.4 14188.5 11970.1 11706.4 11023 10482.5 9981.25 8095.54 7911.48 7468.89 7295.15 7083.23 7067.02 6385.04 6083.48 6042.56 5844.89 5245.5 5094.04 4538.33 4478.98 4533.25 4226.88 3936.11 3894.43 3878.08 3837.33 3629.77 3540.25 3390.89 3357.4 3235.81 4192.35 3229.65 3171.81 2979.27 2969.77 2751.22 2647.82 2594.77 2570.79 2563.42 2536.69 2848.26 2469.77 2453.13 2395 2353.45 2229.58 2207.28 2199.73 2198.61 2188.48
threshold=3.1358620524125604 0.16506879359856577 0.21480067074298861 5.2240641643071291 0.99844048936135021 0.22101256996393207 -0.95994966942229965 2.5669644936256089 0.99054857507422323 0.19741377234458926 1.1451454327649604 3.7093161329143371 3.9391656002081112 1.1260613422103545 0.59546735368934212 5.2458479299026148 3.3427383809294828 0.30003626644611364 9.5000000000000018 6.5430938869238213 5.1877244192868766 1.5136820094099008 0.45161045463198812 0.27866770163018512 5.2597300598278087 0.31552968919277197 0.99999609963041736 1.8149040294279957 5.3439825765667219 0.67564760019117565 3.938979087299078 5.5000000000000009 1.0997612536868064 4.2100762224579 0.86377202279583964 4.931177003560939 0.1142579926188141 1.5942966917245578 1.5573308940267785 -0.5701369288336523 5.2667058615150451 1.3513569047032723 0.47303232450527594 0.92152270273486592 0.57234818248880825 0.83536473088338814 0.089266028255224242 -0.44230632310256185 0.070210110396146788 6.5000000000000009 1.6446804054895405 0.99994708805138233 1.033518004281226 5.1444335545428137 -0.071994237601757036 5.1624352243229881 0.55875819714941821 1.8532044330347757 5.235065288404277 5.0996889553967018 0.1913477980387617 0.028933698949422045 -0.037444531917572015 4.5000000000000009 4.3633956132204679 3.6520787196366786 -1.4241631376849411 0.73514945888645766 0.27713863551616674
decision_type=2 2 2 2 2 2 2 2 2 2 2 2 2 2 2 2 2 2 2 2 2 2 2 2 2 2 2 2 2 2 2 2 2 2 2 2 2 2 2 2 2 2 2 2 2 2 2 2 2 2 2 2 2 2 2 2 2 2 2 2 2 2 2 2 2 2 2 2 2
left_child=1 3 4 5 11 6 12 13 30 10 19 29 31 21 15 46 32 26 24 28 54 44 41 58 33 51 -4 35 43 -3 -8 63 38 49 -13 -25 -21 -38 -10 -22 47 -16 -15 -2 -6 -28 -9 -20 -49 -5 -44 -7 -45 66 -18 -34 -23 -24 59 -12 -54 -37 -53 -1 -26 -64 -33 -31 -11
right_child=9 2 17 18 7 25 8 14 16 68 23 34 -14 42 22 -17 20 -19 40 36 39 56 57 27 64 -27 45 -29 -30 67 -32 53 55 -35 -36 61 37 -39 -40 -41 -42 -43 50 52 -46 -47 -48 48 -50 -51 -52 62 60 -55 -56 -57 -58 -59 -60 -61 -62 -63 65 -65 -66 -67 -68 -69 -70
leaf_value=-1.6495836025947372 -1.7755157826666992 -1.6307834011606803 -1.6289907003950597 -1.6563043645959215 -1.0727722604162946 -1.6758455108914634 -1.5756038934232774 -0.62723971155960789 -1.1137892936772809 -1.7521112361030928 -1.5561599605526573 -1.2670118204648551 -1.1055889303041451 -0.9989683002161811 -0.65022494955169907 -1.241367475864013 -0.95985583331714086 -1.7606053676306193 -1.4861478645283259 -1.5776834942823112 -1.3190399873226346 -1.3823834890857007 -0.44511117719885607 -1.1823690182373179 -1.7312730676030585 -1.7590422589060866 -1.4253224679208965 -0.94384084192499884 -1.7654554300385326 -1.4238579623103065 -1.139536497952113 -1.4017230106410568 -0.84654348392830137 -1.3680140142670323 -0.80057546122164103 -1.6037857285751029 -1.5217172467161721 -1.0535458530882742 -1.3813019597108132 -0.94126240451869558 -1.5894005969454117 -0.98955646590441171 -0.60689990664022719 -1.650302653310078 -0.83729366361681834 -1.1010374893215045 -0.95276468986339957 -1.0606804476920302 -1.4732251430227934 -1.5108211683042001 -0.88545393446011189 -1.6142397760136824 -1.5850319414226699 -1.46627199997144 -0.68131222729138496 -1.1119745541483343 -1.1422885720898628 -0.63934857659187405 -1.6567747465432325 -1.3092082910093665 -1.3434178724661341 -1.222548880090812 -1.4504983091596051 -1.4945272411135897 -1.573934492134917 -1.1236052646208086 -1.1674668258860297 -1.1502598758933233 -1.8345503569610442
leaf_weight=32625.442164570093 23675.644620269537 22429.607734516263 16186.232321023941 87605.588796392083 22146.482260853052 16353.469875097275 17365.609922990203 22941.685120418668 23239.650167584419 85825.330897524953 28135.232588991523 6014.6606240570545 21771.729308649898 8953.3295382857323 11575.660376191139 14381.952581763268 6593.6321901828051 46078.164451152086 28120.864987179637 29170.456503793597 7725.6651463508606 16349.465663820505 45294.741621300578 9525.7055152952671 156257.04783597589 46785.979582071304 10856.067812055349 6749.0923368632793 175005.77478285134 12439.641839429736 7256.4578844755888 15123.921545788646 12619.59908798337 15398.567848488688 10036.839999094605 13523.152144253254 6880.9977874755859 6355.9664730578661 15990.965100899339 10381.679016366601 31376.107436567545 10212.321432009339 19901.496067523956 58883.373696312308 19165.179927349091 9876.1976782977581 6584.4458916783333 8160.7180822938681 7631.6822628378868 33930.36546061933 9884.4418021738529 11559.171945482492 17852.012142270803 42945.172413498163 33975.119238033891 11216.217560425401 12729.834338933229 14593.70809212327 23852.304798707366 10171.807633697987 10897.759423404932 3370.6596221029758 17558.522246152163 30222.639847278595 15950.687204629183 4078.9457279592752 11196.667193859816 7586.4574171751738 130863.56020365655
leaf_count=27258 91825 83957 59072 119185 59176 54052 59501 41935 55270 314352 84265 17494 35908 15644 23802 14459 12726 183090 40682 62931 7545 53400 75157 28235 122467 174192 35172 16287 675858 41101 16092 23652 27680 27252 18642 50535 24570 15407 48314 15690 31418 27402 39058 200198 42180 23814 13676 14142 14929 43247 23992 30102 44064 58646 59492 19076 35484 29395 37597 20189 35040 10125 38343 35215 17934 9403 23095 20780 531055
internal_value=-1.47323 -1.35179 -1.07603 -1.48461 -0.92416 -1.34872 -1.25384 -0.819382 -1.06702 -1.69309 -1.63747 -1.34455 -1.43155 -0.977756 -0.681784 -0.877065 -0.990157 -1.61256 -1.62481 -1.68626 -0.84241 -1.09301 -0.576843 -1.46924 -1.65964 -1.6444 -1.42787 -1.30964 -1.71531 -1.48414 -1.44722 -1.48524 -1.12767 -1.58784 -0.975155 -1.4032 -1.49005 -1.29716 -1.22275 -1.10227 -1.48174 -0.809127 -0.768423 -1.63645 -0.963452 -1.27069 -0.699725 -1.40489 -1.25998 -1.61571 -0.69923 -1.5361 -1.59884 -1.40378 -0.726505 -0.971311 -1.27717 -0.49239 -1.55436 -1.4905 -1.49334 -1.52753 -1.46735 -1.57507 -1.71672 -1.38873 -1.30195 -1.32005 -1.80191
internal_weight=0 1.15724e+06 376219 781018 293222 396586 300250 234715 146365 640739 424050 58507.2 153886 109130 125585 43908.1 121743 82996.7 384432 328722 58676.1 70391 81676.4 95328 309142 96336.1 36918.5 33168.6 286315 42455.7 24622.1 132114 63066.4 136935 16051.5 26419.5 42407.4 13237 39230.6 18107.3 75289.4 21788 38739.3 111309 41311.7 20732.3 29526.1 43913.3 15792.4 121536 29785.9 49550.1 87633.1 69265.8 40568.8 23835.8 29079.3 59888.4 62159.3 38307 28749.8 16893.8 33196.6 62848.1 172208 21637.5 26320.6 20026.1 216689
internal_count=4482923 2240390 977882 1262508 676734 831252 525160 494760 321386 2242533 1397126 181974 203774 268934 225826 70070 245793 301148 431256 1149893 95453 190240 155756 247233 330085 306092 118058 105182 1046985 145838 75593 167866 150340 189684 36136 88895 102908 39977 103584 23235 101171 51204 78694 371127 101356 58986 55611 69753 29071 162432 63050 131900 279302 105393 72218 46756 88884 104552 142051 104454 79104 60660 77848 62473 140401 47746 46747 61881 845407
is_linear=0
shrinkage=1


Tree=4
num_leaves=70
num_cat=0
split_feature=50 52 50 39 39 52 52 50 50 13 13 40 52 18 54 19 0 39 40 39 31 52 54 30 45 40 54 50 12 0 50 0 0 54 40 13 42 49 42 45 40 45 43 42 30 54 0 52 32 40 3 43 52 50 49 12 49 12 42 54 50 31 50 40 20 0 43 10 54
split_gain=295014 158181 76256.2 56839.2 23825 20083.8 16101.9 20189.2 15737.2 14423.3 14083.7 13358.1 10002.6 9239.87 8923.64 7109.75 6990.65 6982.05 6873.23 6154.43 5822.06 5758.33 5589.73 5497.58 5107.91 5327.49 4851.05 4766.69 4617.88 4310.45 4244.66 3912.88 3003.1 2989.82 2983 2968.87 2728.75 2716.2 2576.77 2548.15 2538.51 2461.96 3151.92 2436.82 2408.88 2384.36 2384.13 2179.11 2155.6 2103.38 2033.32 1993.8 1926.08 2270.49 1924.93 1917.02 1890.38 1882.37 1832.5 1789.46 1775.73 1721.13 1720.57 1704.9 1603.24 1600.79 1586.76 1534.86 1533.63
threshold=0.24103903270951579 5.2127829498899088 -0.97671164797185017 4.2816985323253878 4.233436577245822 5.2556282180841594 5.2479402733613201 0.77439688590176481 -0.34854778942815118 0.069490160793066039 0.074468545615673079 1.3654653058909507 5.1634153881964773 1.6904382109642031 4.5000000000000009 1.7812792658805849 0.23660486191511157 2.8419581448226849 1.1649542558263415 3.4149759117533987 0.0067784013859786092 5.2681528762733594 6.5000000000000009 0.013117278087947109 5.4283110331034798 0.79165563766709424 7.5000000000000009 -1.5250962534956758 0.037046041339635856 0.20308180898427966 -0.55424049091349603 0.30003626644611364 0.17143820226192477 6.5000000000000009 2.7222691010949212 0.075828474014997496 0.96059652014491459 1.4801808159421983 1.1113469635376392 4.0243386945418758 1.4244084554769947 3.8518728018786361 2.8172765229802885 1.0685446890731101 0.017647688177261311 6.5000000000000009 0.1470981761813164 5.2674286759198425 0.0076085306503803794 2.0909981208808031 0.68697822093963634 2.998153501639691 5.1812691409457967 0.91728598402416284 1.4801808159421983 0.037913562729954726 1.1235335246668388 0.056695520877838142 1.1753975577088602 5.5000000000000009 -1.0308175617628905 0.0091039806523020347 -0.61398779306303142 2.1598017923777433 1.3971698284149172 0.19394531846046451 2.3986171549815789 0.0023831689031794672 5.5000000000000009
decision_type=2 2 2 2 2 2 2 2 2 2 2 2 2 2 2 2 2 2 2 2 2 2 2 2 2 2 2 2 2 2 2 2 2 2 2 2 2 2 2 2 2 2 2 2 2 2 2 2 2 2 2 2 2 2 2 2 2 2 2 2 2 2 2 2 2 2 2 2 2
left_child=1 2 4 5 9 8 49 19 10 14 18 21 40 15 31 22 24 30 29 26 47 65 27 61 25 38 51 -7 66 33 45 37 -12 -3 58 -28 48 64 -16 57 -4 42 43 -24 -23 -14 -11 -13 -22 -2 -31 -8 -51 -54 -27 -15 -32 -20 -10 -25 -30 -6 -42 -19 -1 68 -17 -33 -5
right_child=6 3 12 11 23 13 7 -9 34 46 32 20 17 55 16 28 -18 63 39 -21 36 44 41 59 -26 54 35 -29 60 50 56 67 -34 -35 -36 -37 -38 -39 -40 -41 62 -43 -44 -45 -46 -47 -48 -49 -50 52 -52 -53 53 -55 -56 -57 -58 -59 -60 -61 -62 -63 -64 -65 -66 -67 -68 -69 -70
leaf_value=0.27639621548420251 -0.32275639216882812 0.30952357648178214 -0.30698663976946095 -0.0080342679514020365 -0.25874737716305407 0.26878382341810658 0.11640938349243868 -0.29883224977512968 -0.10409681492333792 -0.012567116151927391 0.048007829205885005 -0.10584511503554986 0.20904472884098402 0.11934556870696385 -0.016395503254155397 0.13214997911790916 -0.11932448195494252 -0.28223357314925501 0.38594411685991142 -0.18480819824293382 -0.062277025890877136 -0.013144593489323828 0.18170744550601806 0.23079401379823528 -0.1346383624092358 0.18747456680328428 -0.17043598173115804 0.44823618966455392 -0.24314090847832526 0.099622919375517358 -0.17460137517544258 0.24840981261384354 -0.26450483277816145 0.14957332459686651 0.18873881833884509 0.12505679637113812 0.40350450420237238 0.4005469833744269 0.18504485111584229 0.17291086649726387 -0.094225428352503623 0.17203013925298771 0.3793644861286245 0.34712665292886979 0.33437163828757638 -0.027955824438879225 -0.29497812469926243 0.17033214221113757 0.26743417742843412 -0.30296478824349898 -0.18548634624398797 0.37125933261494359 -0.046503937158864903 -0.28267525491741768 0.33725264675584565 -0.18309629473585329 0.020860001198589849 0.22445359753173105 0.077783004623310018 -0.057893577323537539 0.093969345727574136 -0.086387330948904162 -0.24941021166656588 -0.060114046099512743 0.10590303187214137 -0.28476983867983724 0.32823999088154254 -0.10048582509338229 -0.1907455023615009
leaf_weight=41020.72472140193 308838.11842121184 37405.601191550493 116027.86405092478 9873.6447889655828 34495.083080247045 29363.861094370484 9132.1993145495653 61464.1202480793 32404.727231070399 7668.9625652879477 11121.406395807862 13966.40699647367 12800.175756707788 10799.16310608387 28786.796065613627 10181.579953029752 20183.536735907197 34975.538001865149 73770.915543749928 15349.523592889309 5061.4739317595959 18660.873112291098 32314.906178370118 6342.9865729063749 10233.086412683129 43396.707434624434 10612.457748815417 124648.78405813873 4421.5023023486137 14250.042120203376 29081.167959272861 3007.3167490214109 8804.0629129707813 37616.603548228741 9863.4395698308945 11156.552348896861 12492.62132743001 24827.474577859044 15681.6833075881 13432.212653368711 16589.898860827088 19307.8266749084 75209.099231407046 25677.521222501993 3846.2747607678175 14426.752548024058 12816.812149658799 6792.2871061861515 8441.1632057577372 34833.724770322442 5562.3469840437174 10745.877667233348 13723.614529326558 12462.376430928707 20226.068300664425 4859.5942349582911 10839.73438565433 13816.630741715431 12180.400397792459 7467.5299010276794 5737.3900829702616 12761.541690379381 37322.57576918602 6612.3767532408237 11329.397654905915 19725.825242012739 19138.761874139309 6122.1104618906975 29191.400581300259
leaf_count=35034 1331009 34281 471337 33303 148766 24675 17200 237587 77307 14334 18475 43776 19437 17872 58557 15938 64248 160386 42772 59738 15573 64364 39333 14224 16985 41786 20017 47678 13016 30302 77534 7455 33585 50222 10323 20708 14318 15346 18455 14094 42335 17548 33079 15042 6444 27141 54582 14654 13434 108660 19665 9685 35763 37004 14102 15167 24809 14375 17282 21787 9889 46223 116086 19815 14355 90734 15922 22974 113017
internal_value=0 0.094781 -0.0615561 0.215142 0.0761672 0.264388 -0.268203 -0.13981 0.181863 0.13183 0.230353 -0.0278437 -0.212976 0.326042 0.161116 0.339644 0.0981717 -0.118185 0.262952 0.0316216 0.142485 -0.125838 0.360232 -0.147371 0.135299 0.160884 0.111466 0.414043 0.179712 0.185538 -0.0383601 0.262095 -0.0899152 0.229366 -0.0102443 -0.0188498 0.268629 0.29139 0.0545699 0.335594 -0.273609 0.30587 0.325246 0.255006 0.0461007 0.0833475 -0.189412 -0.0153252 0.143605 -0.309317 0.0194167 0.25434 -0.241247 -0.159024 0.23514 0.0252803 -0.121448 0.360506 -0.0543365 0.0744651 -0.0524377 -0.21227 -0.201716 -0.246994 0.23956 -0.191716 0.260256 0.0140931 -0.144647
internal_weight=0 1.34498e+06 585044 759940 306368 631888 488319 118461 270228 245301 215780 128052 278676 361660 224815 346001 138508 108736 195854 56996.6 46754 81298 306522 61067.1 118324 108091 41647.1 154013 39479.2 94834.6 67147.8 86307 19925.5 75022.2 54448.6 21769 25995.3 77177.6 44468.5 101020 169940 152509 133202 57992.4 22507.1 27226.9 20485.8 20758.7 13502.6 369858 19812.4 19878.1 61019.7 26186 63622.8 15658.8 39920.9 87587.5 44585.1 13810.5 10158.9 47256.6 53912.5 41587.9 52350.1 58790.9 29320.3 9129.43 39065
internal_count=4482923 2605552 1568093 1037459 609213 627842 1877371 364935 362683 378213 257771 409617 958880 265159 309297 232120 214133 329122 205711 127348 101755 307862 177355 231000 149885 132900 67610 72353 54765 134470 148921 95164 52060 84503 104912 40725 43325 64735 77012 71241 629758 105002 87454 54375 70808 46578 68916 58430 29007 1512436 49967 26885 181427 72767 55888 33039 102343 57147 94589 36011 22905 194989 158421 180201 49389 237054 31860 30429 146320
is_linear=0
shrinkage=0.4


Tree=5
num_leaves=70
num_cat=0
split_feature=0 0 0 27 30 40 43 0 50 13 13 13 3 27 3 3 39 52 0 50 35 39 30 13 35 3 52 46 34 43 39 3 35 45 47 40 39 39 52 35 5 50 33 0 34 47 10 47 10 52 55 50 5 52 47 45 13 3 13 35 40 40 35 52 33 50 34 27 30
split_gain=531293 56370 42974.3 18004.5 16671.9 10933.6 9168.7 9039.49 8452.05 7696.56 7595.22 6910.79 6891.18 6828.9 5837.02 5568.36 5029.14 4186.52 4183.14 3766.28 3646.1 3268.48 2962.53 2869.03 2837.14 2684.09 2566.97 2544.09 2379.22 2061.12 2006.84 2004.83 1903.98 1839.23 1828.48 1787.89 1712.89 1662.1 1642.79 1640.17 1588.94 1584.33 1542.55 1516.89 1504.74 1473.45 1363.07 1275.01 1274.89 1243.34 1163.16 1149.83 1132.6 1100.34 1082.88 1081.53 1064.11 1083.8 1063.71 1039.34 1034.3 1031.83 1008.13 1000.45 987.565 978.997 952.274 915.073 914.471
threshold=0.19566585868597033 0.28818993270397192 0.12527721375226977 0.99999698566310802 0.0053697242196018525 0.908929985646725 2.5235916322280105 0.39350885152816778 0.40742704043066619 0.088554885238409056 0.082268878817558302 0.06749312207102777 0.56227028369903576 0.99999425067556214 0.56227028369903576 0.62843346595764171 3.7140483556548682 5.2583494208462298 0.076324775815010085 0.81557585911541042 0.020950557580596652 2.8775985976826663 0.0045109159664730673 0.064112700521945967 0.014628865783862686 0.64664974808692943 5.2696199938950663 -3.1125109162416575 0.015019694256813633 1.6684928672074324 4.7548880492149523 0.60675880312919628 0.024277162839307042 2.3229209388042471 8.5000000000000018 1.3654653058909507 1.6237891016498798 2.3624865647605309 5.2500466247009889 0.0061070031641538717 -0.050116350874304764 0.31763625113514277 0.053319564320115143 0.077220305800437941 0.0079347212497518256 6.5000000000000009 0.016233749687671665 8.5000000000000018 0.020084179006516937 5.2111986718013936 1.0000000180025095e-35 0.78799566365144724 -0.080374248325824724 5.2088070511985647 8.5000000000000018 1.8997121801593424 0.064112700521945967 0.48465058207511907 0.057394189760088928 -0.025938023103136035 1.1486687059690068 1.7121594313050761 0.030403293587642311 5.2240641643071291 0.0053179083803280057 0.64818040144006661 0.0064358759847268588 0.99999999999705647 0.0061768571893278659
decision_type=2 2 2 2 2 2 2 2 2 2 2 2 2 2 2 2 2 2 2 2 2 2 2 2 2 2 2 2 2 2 2 2 2 2 2 2 2 2 2 2 2 2 2 2 2 2 2 2 2 2 2 2 2 2 2 2 2 2 2 2 2 2 2 2 2 2 2 2 2
left_child=2 4 5 6 8 13 19 11 12 14 16 15 17 18 24 22 31 23 -1 25 27 63 46 36 38 49 42 -8 52 51 59 53 -16 -18 -21 47 -2 -29 58 -14 -11 -28 67 -23 -24 -25 -3 -10 56 -4 -27 -20 -12 -5 -53 -45 57 -9 -6 -7 -33 -41 -42 -15 -38 -39 -35 -13 -54
right_child=1 7 3 10 9 30 20 48 35 40 28 26 39 21 32 -17 33 -19 29 34 -22 43 44 45 -26 50 41 37 -30 -31 -32 60 -34 66 -36 -37 64 65 -40 61 62 -43 -44 55 -46 -47 -48 -49 -50 -51 -52 54 68 -55 -56 -57 -58 -59 -60 -61 -62 -63 -64 -65 -66 -67 -68 -69 -70
leaf_value=-0.1858506523792639 -0.059754666327076628 0.13498311688562392 0.090405439623269385 -0.19611466015052159 -0.043268009774631445 -0.22245719648075274 0.2492938357517307 0.18440516728908518 0.43368762834579172 0.34969023220844703 0.20891882329472292 0.44113468808518841 0.38161784106911395 -0.23451912777950029 0.19143989798927602 0.38179283752826138 0.050491043888380931 -0.093999124326518801 -0.011326095025736871 0.39387368194779221 -0.15147701245721265 -0.21975269992108212 0.15944518527502671 0.29469647977147939 -0.16013635381276603 0.27985282978988968 0.069387646286680371 -0.10892141516041479 -0.097306903102583275 -0.10158565972411937 -0.21709136830698858 -0.058862314733252798 0.0040578766263189665 -0.039402768666971281 0.11117464291269977 0.20803564971057076 0.24250246201678954 0.018248457530285558 -0.1366639040403432 0.26249721745717547 0.21572349071460253 0.37284947739738689 0.25909243368014545 -0.015990402078575518 -0.040626394172667495 0.086118673109266727 0.3273840027797188 0.24955028875817803 0.47366085693710974 -0.068889753928638386 0.09372819865264001 0.30347333506926538 0.094047914719171413 -0.2816517483501581 -0.0086362685737239181 -0.15465234496820601 0.44171812799346538 0.40812800119656167 0.13183543918883445 -0.30669424319228639 -0.21535919766849873 0.025271030756253188 0.014342137856891209 -0.30195553751187121 0.047164928884786579 0.25309875553984301 -0.17711145616494289 0.35671998009289374 -0.059511809744829169
leaf_weight=70228.132052347064 11761.792002692819 10028.769029155374 17649.553778231144 42401.650997310877 9154.4520432800055 26121.427770569921 6846.8586927354336 6725.4863514006138 35499.316225752234 10451.852803841233 6752.9950038045645 74711.057605966926 20719.297078847885 77116.512464895844 22734.043516859412 25566.92559184134 14858.111708655953 14624.384281679988 19863.267997324467 12149.872413292527 33709.479383438826 46524.056826472282 11148.273992434144 20093.460797891021 33705.907227739692 12768.532823875546 6362.3341040760279 16364.910993918777 27434.782418429852 44158.789486467838 58171.049971431494 16427.793001666665 14088.050507128239 14018.883918434381 5289.9228215664625 9317.468020260334 7872.0066076666117 12589.866291314363 9276.3576960265636 17468.500921025872 13207.147109359503 4895.5421271622181 10986.930935502052 12441.021056547761 13022.804976537824 7485.943179294467 14536.482295230031 7354.7174957096577 125936.66008961201 14089.23835195601 9385.4392166286707 4283.4328976124525 13631.253396362066 56793.705290466547 3008.2567102462053 33053.438033223152 23189.19865745306 7311.1302876472473 14016.748493939638 256248.57712574303 11571.7133166641 3562.2909409701824 5741.5401313006878 66031.984799996018 8842.0773866176605 3681.1005610376596 19042.917521119118 29059.053252696991 11367.19275842607
leaf_count=254694 18240 21512 58780 77067 16392 43497 20996 14765 104125 29445 21240 220398 58719 188617 55338 68330 50590 24298 69859 40494 76208 183394 23436 57856 54603 41353 12199 29413 76544 153341 223709 35867 28825 43484 18335 24396 22597 41406 12935 48400 35040 13645 29107 50694 21479 21680 37531 21564 374998 37235 30312 16779 42861 61403 12185 127387 68568 20028 35707 414451 15916 7569 13528 102803 23172 13284 57077 80988 30235
internal_value=0 0.278741 -0.175422 -0.0664274 0.149441 -0.232985 0.0445877 0.384376 0.234438 0.0437288 -0.134919 0.327388 0.172639 -0.186005 -0.00777762 0.230526 -0.176789 0.0964615 -0.11654 0.146654 -0.0548418 -0.227801 0.151107 0.146208 -0.0788572 0.0942836 0.384477 0.0275821 -0.0109833 -0.0482396 -0.284946 -0.218407 0.119835 -0.0662543 0.308308 0.367552 0.0570025 -0.0188339 0.00547548 0.301525 0.224239 0.201634 0.402386 -0.168889 0.051519 0.238198 0.248967 0.40216 0.45432 0.0195915 0.201146 0.0383928 0.0635038 -0.245121 0.174271 -0.116804 0.388805 0.301162 0.0625177 -0.298913 -0.123654 0.222467 0.154873 -0.265649 0.139357 0.071577 -0.118817 0.417527 0.0240938
internal_weight=0 660458 1.09608e+06 378826 296977 717250 144525 363481 164601 132376 234301 200318 112430 376709 102976 74303.3 175115 70679.7 141542 71332.6 73192.2 235167 48736.3 56055.3 66153.5 53892.8 126015 39482.7 59186.2 71313.7 340541 127195 36822.1 47919.9 17439.8 52171.5 28475.9 32635.9 32447.6 41750.1 29400.5 11257.9 114757 92018.5 24171.1 27579.4 24565.3 42854 163162 31738.8 22154 27155 31751.4 99195.4 7291.69 45494.5 37225.8 14036.6 23171.2 282370 27999.5 21030.8 18948.7 143148 16714.1 16271 33061.8 103770 24998.4
internal_count=4482923 1721413 2761510 920100 714429 1841410 407816 1006984 432616 281813 512284 528625 282531 1159753 203800 172288 341404 167843 506858 226509 181307 652895 103958 143545 119637 167680 356337 105099 170880 252164 681657 190253 84163 151151 58829 150085 64009 84103 65034 114688 78013 25844 330493 361475 44915 79536 59043 125689 478359 96015 71665 98823 94336 138470 28964 178081 103361 34793 52099 457948 51783 55969 48568 291420 45769 54690 100561 301386 73096
is_linear=0
shrinkage=0.4


Tree=6
num_leaves=70
num_cat=0
split_feature=39 0 43 40 47 1 27 54 42 0 31 39 0 42 40 47 42 42 0 42 29 27 39 54 0 27 47 39 0 46 15 40 40 39 32 31 39 45 39 40 40 54 50 54 30 39 29 41 43 50 13 50 40 29 30 30 45 31 29 29 41 41 13 43 52 50 29 27 42
split_gain=196959 95628.4 51313 34496 22514.3 19357.5 12367.9 10729 9747.08 7258.54 6228.27 6152.99 6130.55 6126.44 6030.05 5569.04 5380.25 4963.86 4637.81 4255.03 4005.3 3820.14 3768.01 3745.89 3737.79 3315.55 3219.67 3192.06 3091.73 3055.6 2658.48 2643.03 2464.71 2383.44 2326.51 2277.17 2085.89 2079.62 1877.36 1866.66 1827.04 1775.7 1726.36 1718.51 1687.52 1521.15 1507.2 1489.98 1434.94 1375.87 1470.09 1281.08 1253.91 1153.63 1098.02 1095.76 1081.46 1203.39 1069.26 1060.9 1241.44 1057.06 1049.98 999.784 992.195 1119.09 985.104 980.538 968.776
threshold=2.4209845994063657 0.26099692285060888 4.8469846775211893 2.8539925922912945 6.5000000000000009 0.71617490053176891 0.99999980912853081 8.5000000000000018 1.2322654480598163 0.35323731601238256 0.0095062339310392034 6.1960839873345774 0.21480067074298861 1.0723344635237961 1.1316337811697526 6.5000000000000009 1.194040592337567 1.1753975577088602 0.22316491603851321 1.1113469635376392 2.8092136370701297e-07 0.63474378841604517 5.9918386690706109 8.5000000000000018 0.28547576069831854 0.95370816204478681 6.5000000000000009 6.1960839873345774 0.18070223182439807 2.2760865221836171 0.0066458282526582488 1.181599492108022 1.9914485538792339 1.0081754123644193 0.0090034796273022414 0.015381341565783984 0.93553639810463884 3.5344186273740399 6.3413559778289139 0.68041184883764327 0.66711252181086811 5.5000000000000009 0.5529806417885933 7.5000000000000009 0.027468080742825019 1.0438149069066183 5.4374599275595929e-05 1.4080678991094417 6.2067204148587773 0.5663732982562496 0.080265466123819365 0.67636715666487979 1.8991107927353481 7.2436354096097266e-08 0.010181641994928296 0.032699945103413945 1.3284097202813154 0.016973010268910366 3.2747040902196307e-08 3.6320330632629672e-06 1.4115698907392358 1.4149654214357525 0.072613831609487547 6.5430938869238213 5.2590385920238338 0.5818655849222184 6.828220655756754e-05 0.99999802996796905 0.93487553363708253
decision_type=2 2 2 2 2 2 2 2 2 2 2 2 2 2 2 2 2 2 2 2 2 2 2 2 2 2 2 2 2 2 2 2 2 2 2 2 2 2 2 2 2 2 2 2 2 2 2 2 2 2 2 2 2 2 2 2 2 2 2 2 2 2 2 2 2 2 2 2 2
left_child=2 3 4 5 7 8 12 19 15 30 27 17 21 18 29 23 20 26 31 24 33 -6 40 38 25 -1 41 54 44 37 -3 45 36 -8 68 43 58 -4 48 53 -10 -7 -30 64 56 -9 -18 -35 -2 50 -43 61 -22 -27 -5 -24 -13 -58 -23 60 -38 63 -19 -25 65 -17 -15 -31 -12
right_child=1 9 14 10 6 11 16 13 22 -11 34 28 -14 66 -16 35 46 62 -20 -21 52 32 55 51 -26 39 -28 -29 42 67 -32 -33 -34 47 -36 -37 59 -39 -40 -41 -42 49 -44 -45 -46 -47 -48 -49 -50 -51 -52 -53 -54 -55 -56 -57 57 -59 -60 -61 -62 -63 -64 -65 -66 -67 -68 -69 -70
leaf_value=0.020866418090221203 0.14464988413970589 0.034901731983046261 -0.26002133419327428 0.047666280274226175 0.29143828608847566 -0.02218374215929041 -0.12862192359549099 0.034753206520410515 0.11379612702726259 -0.27044785249919417 0.067356028523105571 0.15564672116347655 -0.12555841406472501 -0.18438111124673789 -0.31276890543224101 0.36082529252647433 -0.20446642712335683 -0.12753562144733652 -0.18380722075266598 -0.26082245119807274 0.16800825191458116 -0.0026095630618739474 0.28966229006589772 0.29601175324482143 -0.27407503776307635 -0.12603952445452507 0.20439098931949495 0.21783183842519691 0.16949934041169215 0.1624965563685595 -0.13574427098700467 -0.054000994541857916 -0.086025444804756906 -0.042620650425980955 -0.26514195537866025 0.2158592747093401 0.09714231577387257 -0.095871115858627509 0.24621126461456916 -0.20177871948955053 -0.079746997602740066 0.10219006294175248 -0.012074288905557035 0.38076365439660531 0.05040105283084139 0.17491670122981706 -0.020453934573698426 0.11134586657707435 -0.073321083556692493 -0.021523247385988254 0.28587388743883863 0.18980775149505036 -0.082319758030395998 0.015370048403180563 -0.16422397992415511 0.067528285702178281 0.31514573213266134 0.13884722947218697 0.18365189055140291 0.31978673235279298 0.26581282725410488 0.37451448502079582 0.024970604323952737 0.10293070417641109 0.19681605394117763 0.24925474949296544 -0.040276667893058171 -0.078004763649137179 -0.16667801175355532
leaf_weight=23434.067300498486 38362.650549128652 20880.748891443014 43772.36611995101 7583.8395302295685 25775.788246825337 24353.886890128255 33336.928188994527 21974.259721949697 15970.325260266662 65002.015067651868 5791.2788200080395 11186.769141688943 13790.678787961602 38344.949114844203 194422.24087998271 42424.515541881323 35951.064144194126 17980.263210460544 14479.79272544384 76119.369494259357 22622.713001728058 17893.03698694706 15928.9544480443 42432.983195766807 29031.570633038878 38440.621986359358 42312.089432433248 11288.053468793631 25929.300345629454 4260.3224889487028 48411.41313546896 21234.954246550798 8817.698044270277 27506.940816566348 25300.132366009057 23073.812145650387 18486.587479904294 17300.008147418499 30857.993546828628 49156.573668897152 15248.851038768888 34874.486789554358 12330.450454667211 113151.82277274132 6161.5520566701889 28595.712569311261 8930.6790378838778 15842.879922226071 5508.1083009541035 10562.353923946619 8754.4570102542639 16535.570872321725 3711.0071394890547 12096.508081004024 8046.8256053477526 4624.8130040615797 48725.699238032103 7176.3097805529833 6790.2392816841602 8821.6311635822058 11312.679977864027 28438.377476558089 12022.292343184352 4832.3763673603535 12049.704699382186 22144.967084109783 9537.9989791065454 7457.3112794458866 5513.7100306749344
leaf_count=65286 92894 77239 69641 15367 72115 52855 61606 49737 34812 377003 11867 31581 62664 72399 310888 116216 59120 27454 66001 128407 57378 35602 41283 113647 144323 68100 118677 27774 84714 12825 227998 37813 14558 55342 29881 56534 41062 44997 84904 63135 24737 87879 45050 313183 12608 74123 18999 37915 9382 34231 27191 46661 6544 28281 11099 8980 137554 17201 16544 23803 29113 81305 29260 10154 26343 62053 22879 16433 7719
internal_value=0 0.136664 -0.129374 0.191819 -0.0663902 0.217646 0.0235198 -0.130794 0.269742 -0.174412 -0.0902803 0.131939 0.124001 -0.0409942 -0.27598 0.291941 -0.0523368 0.0792404 0.0226476 -0.183559 -0.00194982 0.159188 0.106829 0.237188 -0.144886 -0.114399 0.115401 0.0556828 0.203206 -0.177675 -0.084275 0.0643248 0.111879 -0.0481985 -0.197706 0.334877 0.139496 -0.213575 0.170522 -0.146227 0.0191585 0.0674223 0.110898 0.349331 0.251377 0.114074 -0.167922 0.013575 0.11721 0.107751 0.139121 0.291165 0.13261 -0.0921286 -0.0612123 0.239836 0.269787 0.292571 0.0485003 0.19757 0.161282 0.313261 -0.0663184 0.276339 0.302869 0.32261 -0.155743 0.00916413 -0.0465048
internal_weight=0 891774 889249 757480 622037 693956 259591 362446 431586 134294 63523.8 262370 111688 134168 267212 379813 147902 150860 86284.7 228279 103020 97897.7 51772.9 166968 152159 123128 120857 26918.7 111510 72790 69292.2 71804.9 72121.9 76686.7 36605.1 212845 63304.2 61072.4 74728.8 99693.7 31219.2 78545.2 38259.8 189771 73250.3 50570 44881.7 43349.8 43870.8 54191.3 43628.9 92239.3 26333.7 50537.1 15630.7 20553.8 67088.8 55902 24683.3 38620.9 29799.3 75703.7 30002.6 47265.4 76619.2 64569.5 47882.9 11717.6 11305
internal_count=4482923 2615290 1867633 1933050 1412849 1829343 592365 820484 1123088 682240 103707 706255 295461 322952 454784 1013276 296904 377547 227674 497532 218785 232797 109812 438947 369125 224802 320833 54240 328708 143896 305237 161673 160682 154863 49467 574329 146124 114638 187180 159516 59549 202156 129764 517795 198944 123860 78119 93257 102276 149301 115070 251767 63922 96381 26466 50263 186336 154755 52146 93978 70175 205106 56714 123801 204612 178269 95278 29258 19586
is_linear=0
shrinkage=0.4


Tree=7
num_leaves=70
num_cat=0
split_feature=39 1 50 27 52 30 0 40 27 50 50 45 40 0 45 27 40 52 27 27 52 50 40 0 43 13 39 45 52 40 50 31 39 50 41 50 47 13 52 31 39 13 0 29 31 45 52 42 40 43 50 45 27 32 29 39 52 5 5 43 50 5 5 31 39 13 54 13 39
split_gain=120889 66343 46170 21337.4 20378.7 16019.7 15224.1 11296.6 9256.64 8823.62 6989.11 6826.8 6555.7 6445.98 5924.38 5693.88 4864.03 4413.08 4082.4 4035.93 3989.15 5046.06 3941.28 3878.05 3789.21 3650.18 3356.74 3280.2 3256.99 3225.61 3595.78 3186.3 3000.3 2615.69 2610.97 2577.73 2568.63 2481.97 2357 2319.22 2217.79 1951.08 1941.97 1932.75 1928.44 1893.38 1849.08 1758.29 1750.88 1713.11 1655.64 1606.71 1524.05 1515.88 1491.59 1470.43 1416.72 1398.71 1392.39 2003.03 1367.01 1323.71 1289.82 1277.6 1276.84 1243.32 1214.4 1222.17 1206.71
threshold=3.8059825878112092 0.75765517354011547 -0.039034636725193909 0.99999892709964244 5.2088070511985647 0.013613179842944885 0.30602785944938665 1.2525928772647503 0.99965311781478439 0.33031333937160584 -1.5530819451586901 3.3538827104117988 -0.26703274125803134 0.17143820226192477 4.5826408949613056 0.61097674745922015 1.4244084554769947 5.2047290773126695 0.99998820494485174 0.99999967537045487 5.2710846430042499 0.47303232450527594 -0.04076151761940517 0.25828547775745397 2.971307755929951 0.10152574628591539 6.4105471926537119 5.3542106088280574 5.2556282180841594 0.39898276708972663 -0.012869707881929314 0.0042376177742113712 2.0055638697233928 0.99227956133202044 1.404787548946943 -0.5994436871332306 4.5000000000000009 0.07627576589584352 5.0953987444147097 0.0081310197509541025 1.9788698159506231 0.061516713351011283 0.39350885152816778 1.2403424104257551e-07 0.008852698694070937 2.3671473690065139 5.1912803732919475 1.2436440504652897 0.13327527987632221 2.8667342094298718 -0.61398779306303142 7.3393207584802402 0.99956294555399627 0.018028651715484938 0.00014028769124643513 2.0055638697233928 5.2372244443646112 -0.033099256455898278 -0.033099256455898278 3.1919074372710194 -0.063199319598912659 -0.048837875947356217 -0.066107034683227525 0.0058155854453410902 1.7126647286948895 0.09192316979169847 6.5000000000000009 0.054230436682701118 1.4540807155963325
decision_type=2 2 2 2 2 2 2 2 2 2 2 2 2 2 2 2 2 2 2 2 2 2 2 2 2 2 2 2 2 2 2 2 2 2 2 2 2 2 2 2 2 2 2 2 2 2 2 2 2 2 2 2 2 2 2 2 2 2 2 2 2 2 2 2 2 2 2 2 2
left_child=1 2 4 7 8 13 9 15 24 14 45 28 40 18 17 -4 19 36 -2 -11 25 -22 55 29 -1 31 48 37 35 47 46 34 49 -27 43 -6 -3 38 -24 64 54 -37 58 -14 -32 -10 -31 -7 -20 65 -40 -13 -38 -28 -5 -12 -41 -16 -8 -60 -50 -26 -18 -62 -9 -17 -30 -68 -21
right_child=5 6 3 12 11 23 42 39 10 16 22 51 20 -15 57 32 62 -19 26 68 21 -23 27 -25 61 33 53 -29 66 30 44 -33 -34 -35 -36 41 52 -39 50 56 -42 -43 -44 -45 -46 -47 -48 -49 60 -51 -52 -53 -54 -55 -56 -57 -58 -59 59 -61 63 -63 -64 -65 -66 -67 67 -69 -70
leaf_value=-0.13618573136172929 -0.24595315582897626 -0.093718284292639703 -0.16614309487367468 0.25185521346159001 -0.065689041805613871 -0.17041115290300712 -0.24684338884701384 0.22789699664438295 -0.031306749422050549 -0.11916663633025773 0.14085304849800764 0.05781227042862374 0.37275192158103776 -0.28818186711472354 -0.031587628628474522 0.11954760485165641 0.072236237680105522 -0.15499433020963638 -0.15355853476847248 0.20368067856112609 -0.036512917903602449 0.33321771446072512 0.36869991684565406 -0.23927809984961224 -0.076009293880125339 -0.004549074163668519 -0.21560633163687615 0.42769460433776968 -0.18216680898391147 0.10366021445590286 0.094965444495697687 0.39699614517425447 -0.058733756511246786 0.28169708155644868 0.14664001924457346 0.203763278174522 -0.1038641330655888 0.087328599490853864 0.15411204602228651 0.39407114096313284 0.027131818315536502 -0.0077887329488416195 -0.28257063418960277 0.20565450842243452 0.34376442420883618 0.13958621409241131 -0.10940983254615305 0.067153730990943336 -0.083037443209575845 0.22322780667292733 0.29830440107361839 0.24021264063243147 0.097195838246282903 -0.039294073534748827 0.040612619013658549 -0.04848147339336719 0.18765993444592011 0.17227887162618616 -0.19285140645218679 0.036888316347887216 -0.023640789930532039 0.13960470654427798 0.29803597181480102 0.18881831948693811 0.04315802568594268 -0.054193691221072662 -0.020395159860767044 -0.13963404377416724 0.028650051918884086
leaf_weight=25909.378195255995 80443.954972743988 42745.883525505662 22033.861406669021 27609.088818356395 71228.731928698719 18806.809524819255 18683.79437468946 16659.820955902338 29669.34216222167 19654.575600579381 21466.979133293033 32967.144557096064 42131.305306836963 134170.09048689157 7811.6790298894048 21263.270459607244 5347.7580187171698 100430.96870634705 21027.905715152621 13566.59494791925 11108.78707306087 12576.736879304051 19988.454887852073 11818.633070774376 6097.7792365252972 7868.7800886929035 57976.618628561497 13788.635860458016 39046.566064998507 10611.153211221099 12744.557328686118 105832.9391810149 20981.261356979609 14442.528482168913 16276.322544783354 11493.004904553294 7740.764362603426 18593.795492768288 34372.518364623189 17679.318863064051 15235.65211109817 17675.180233880877 44427.181775420904 15163.945171013474 8240.2840323746204 15934.755729213357 16863.386797964573 6759.9172969609499 19654.107017830014 17306.939757689834 20407.340625301003 10125.486307576299 27157.320539027452 9068.2919135689735 6679.6689773499966 9422.3582203835249 7712.87354888767 17159.049356177449 15460.164108462632 9965.5937790498137 10378.924399569631 17834.45708014071 17180.870504781604 8003.4839165657759 9416.9471129104495 9520.8298707306385 23527.131556227803 33344.369871512055 11859.125516042113
leaf_count=90362 392069 70952 93253 49086 100847 84788 89639 30746 40892 74024 41662 49665 64671 746067 14423 52820 11444 117578 89127 27524 8273 17645 32476 66502 14135 14765 279360 21264 36082 29649 43313 145086 71202 24749 36661 16998 23717 39295 44576 27287 44238 33488 262678 28218 18846 24183 32141 19630 56516 31131 30470 17252 48328 35828 14405 28809 8849 28303 76094 37113 39780 37103 27766 24417 24734 27888 25294 40913 33834
internal_value=0 0.065652 0.124193 0.221134 0.0385997 -0.18097 -0.0794544 0.0955297 0.122686 -0.0323411 0.16418 -0.043393 0.28626 -0.219881 -0.0740253 0.0108655 0.0927994 -0.0996205 -0.175499 0.0168776 0.315227 0.159675 0.209036 -0.0264959 -0.0301395 0.333476 -0.130532 0.245341 -0.0750488 0.0074326 0.0681219 0.35247 0.067377 0.1806 0.288375 -0.0246498 -0.0279543 0.218375 0.250921 0.245333 0.154359 0.0754584 -0.223443 0.328583 0.192816 0.0283356 -0.0270019 -0.107473 -0.0609234 0.122463 0.207887 0.100745 0.0525069 -0.191807 0.210797 0.0829956 0.3315 0.108374 -0.163816 -0.102679 -0.00962729 0.0845339 0.244579 0.0686873 0.161306 0.0657094 -0.127768 -0.0903625 0.122168
internal_weight=0 1.24959e+06 890394 417501 472893 426568 359191 142575 233486 270655 183644 239408 274926 340723 203046 91106.2 67608.9 178075 206553 45080.3 225401 23685.5 138040 85844.7 49841.6 201716 126109 107151 196315 74026.1 48459.4 179405 69072.3 22311.3 73571.6 100397 77644 93362.1 74768.3 51469 49524.4 29168.2 88536.7 57295.3 20984.8 45604.1 27474.5 25566.7 59064.4 48091 54779.9 43092.6 34898.1 67044.9 34288.8 30889.3 25392.2 24970.7 44109.6 25425.8 38036.5 23932.2 22528.6 18382.4 26076.8 30784.1 95918.1 56871.5 25425.7
internal_count=4482923 2524890 1581473 815707 765766 1958033 943417 367910 445227 477893 303627 320539 447797 1663164 303301 276294 174592 260575 917097 135382 340068 25918 238552 294869 141600 314150 525028 168081 253622 228367 123949 274636 183041 39514 129550 151333 142997 146817 107522 91616 107729 50486 465524 92889 62159 65075 61790 104418 209840 111839 75046 66917 72045 315188 63491 70471 36136 42726 202846 113207 120713 51238 39210 64197 55480 80708 102289 66207 61358
is_linear=0
shrinkage=0.4


Tree=8
num_leaves=70
num_cat=0
split_feature=50 52 50 39 52 27 30 19 54 50 39 13 20 39 18 50 52 54 40 39 0 13 40 13 49 42 54 45 40 0 12 52 54 45 43 49 3 50 54 3 49 13 31 39 52 30 27 51 20 52 49 42 30 41 32 39 31 13 50 3 51 40 40 0 50 21 51 0 49
split_gain=146758 75428.4 48620.6 18959.9 12199.5 12052.1 9944.02 9357.4 9131.77 8688.54 8422.21 7466.26 7388.78 7158.24 6846.01 6501.94 7491.16 5076.56 4410.59 4348.07 4045.21 3983.89 3892.15 3751.62 3512.64 3466.77 3325.34 3026.11 2888.65 2888.41 2698.42 2556.4 2515.47 2394.31 2380.4 2153.33 2126.49 2122.95 2122.74 1947.07 1945.88 1906.45 1901.09 1818.86 1759.02 1744.06 1714.48 1705.61 1644.55 1642.74 1500.67 1476.04 1417.1 1407.05 1366.25 1316.74 1269.3 1258.22 1252.23 1242.87 1238.26 1224.39 1209.19 1186.5 1172.96 1171.6 1171.48 1169.07 1160.18
threshold=0.40742704043066619 5.2465335265257869 -0.61398779306303142 2.4811134452916943 5.1685739034447318 0.72291066525819558 0.0086870459300090654 1.7144190073013308 6.5000000000000009 -1.162806731422968 3.2913432134824245 0.056373501196503646 1.5771492719650271 6.1960839873345774 1.8284419775009157 0.88778406672443044 5.2270468984102232 7.5000000000000009 0.92417946179081301 2.2466436189217265 0.25316707789897924 0.086474694311618819 1.181599492108022 0.063568007200956358 1.3162590791119293 1.1716671622749233 10.500000000000002 2.6704210203422796 0.15874447672389447 0.22760828584432605 0.079300206154584899 5.2733991559190514 7.5000000000000009 3.0890291126435772 3.2521400178021742 1.3724144080877783 0.63926470279693615 -0.075764334866888813 3.5000000000000004 0.80260768532753002 1.030690666877784 0.05808073282241822 0.0093643283644241192 3.1358620524125604 5.1444335545428137 0.010824224683004853 0.99988845290415262 3.0131485853403248 2.4274255037307744 5.2703507278034509 1.1105999194755294 1.2017088570045447 0.02388217380173464 1.3679822619106818 0.0072458098805114604 2.9496920897843006 0.0083659602300255181 0.063299287110567107 -2.5145181688339862 0.54414147138595592 2.9448199896772804 1.0496336282764152 2.3154663780144986 0.1822723597288132 -0.49779153872793941 1.4132447838783266 2.3241160945723038 0.29125522077083593 2.4339290566069236
decision_type=2 2 2 2 2 2 2 2 2 2 2 2 2 2 2 2 2 2 2 2 2 2 2 2 2 2 2 2 2 2 2 2 2 2 2 2 2 2 2 2 2 2 2 2 2 2 2 2 2 2 2 2 2 2 2 2 2 2 2 2 2 2 2 2 2 2 2 2 2
left_child=1 2 3 7 55 19 25 12 9 11 18 29 14 20 17 16 -2 24 51 42 26 31 43 28 27 38 35 39 -8 58 46 50 -30 34 -20 49 48 -23 67 65 60 56 63 47 -19 -15 -9 -18 -14 -10 61 68 -12 -28 -40 -4 -27 -13 -7 -31 -24 -11 -21 -3 -33 -1 -17 -5 -6
right_child=15 5 4 6 10 8 23 30 13 21 52 57 36 45 -16 66 22 44 33 62 -22 37 40 -25 -26 41 53 -29 32 59 -32 64 -34 -35 -36 -37 -38 -39 54 -41 -42 -43 -44 -45 -46 -47 -48 -49 -50 -51 -52 -53 -54 -55 -56 -57 -58 -59 -60 -61 -62 -63 -64 -65 -66 -67 -68 -69 -70
leaf_value=0.25620700024296256 -0.26236407020344266 0.066654356443590773 -0.22353432026801368 0.034078107957759132 -0.16397562771843346 0.10732096835899592 -0.054134312258206675 -0.1516897531341666 0.12891407956218434 0.16398019499764865 -0.252050805681372 -0.083982476528122227 0.0942859815174103 -0.15190821988895975 -0.1701482357795126 -0.18196569440518157 0.049973059209428385 -0.030152270190913516 -0.012912663883128256 -0.23799952097054444 -0.034181129455069001 -0.11686460976665632 0.12054017519347281 -0.12623894464638516 0.29250559690321676 0.0074946990052620179 0.13005052136360815 0.032056674349077795 0.22826040067624423 0.10103870501377217 -0.27481422301878394 0.29687682662713699 0.0033328132428380904 -0.093512617767463252 0.18537138544305054 0.28530591474350137 -0.11924076614827411 0.21672906270526299 -0.23803917436186184 0.042195505077540302 0.25001072094045501 -0.15795631483803052 0.22294570611646619 -0.28774135508909132 0.1181676697533133 0.078186755145635056 0.029090372579712438 -0.18528828565102828 -0.067058576062621125 0.22851423104656945 0.3497783749652017 0.020229640948746252 -0.033186177360051181 -0.012865488763976191 -0.12804560852815464 -0.31032597498044406 0.25661929619511559 -0.41962475268888016 0.25614978295602348 -0.15582736648097259 -0.11325480108017638 0.28594164661848248 0.039157058061053414 -0.17671244262502542 0.41019689303693413 0.14499037185684191 -0.30971814600563113 -0.2388567528729372 0.087951563010544784
leaf_weight=53751.982031650841 77550.884919993579 9892.3882989734411 68196.458021238446 11260.11128693074 36421.170615784824 12092.719838917255 12649.241398379207 11488.683631062508 55232.886702626944 24166.687412060797 41776.52040695399 3545.7105288356543 35561.135740838945 15350.792485073209 9695.1981550380588 12463.69908695668 8571.869608156383 17040.078688919544 16189.797285377979 14112.79142524302 15927.462216712534 5026.795896962285 6295.9162810742855 13244.272463262081 55895.605033703148 9312.0191443711519 43334.033701866865 20936.606256105006 28459.278866186738 8272.1927665621042 7858.2087116241455 21537.502283602953 11082.105811156332 12730.982028722763 24012.003071315587 40685.891303136945 16002.855570062995 7738.8681277632713 45246.795458674431 10741.053651183844 6394.9132682159543 7084.4059379696846 8823.0289836600423 10967.788095280528 50960.213249191642 8006.204278357327 31104.357517026365 11552.645017579198 14098.61705917865 51346.350817352533 25205.325418010354 11242.584963366389 5376.7974132224917 14729.206351481378 30365.398372650146 48049.508312933147 5068.5899976491928 3662.0582865327597 36915.057646855712 4739.6929498314857 8533.7193112075329 29428.486140161753 3042.4988312721252 4738.7916748002172 47325.206587992609 21331.92585426569 167944.87087676674 3227.8151809573174 3163.0410223007202
leaf_count=36159 432366 13671 280286 35390 122030 12634 43361 39624 55606 32619 232857 6935 45843 64957 32360 72267 22569 29772 37119 58187 41278 12580 13942 51565 34987 25955 37989 23585 44122 14911 34271 13494 24500 26270 33790 25335 38340 10855 217768 14809 12514 29825 8848 66159 51003 18447 62701 38994 31770 34206 16409 22861 19020 23040 128073 311780 7616 14155 24931 14544 24740 18143 5398 15744 17514 21466 967668 20527 7869
internal_value=0 0.0540695 -0.0227372 0.047015 -0.162031 0.173509 -0.0599893 0.100156 0.191417 0.248718 -0.0869801 0.130196 0.126474 0.137607 0.158961 -0.251754 -0.183444 0.172808 -0.0232439 -0.035565 0.159844 0.299841 -0.0663968 0.0637758 0.21119 -0.132608 0.174911 0.168586 0.112057 0.175009 -0.0594123 0.318383 0.165302 0.0575291 0.10544 0.206892 0.00750641 0.0851176 -0.167027 0.201855 0.0655478 0.011715 0.0762773 -0.156569 0.0809534 -0.0729003 -0.0195966 -0.0849217 0.0484151 0.176928 0.269038 -0.107427 -0.227162 0.0937412 -0.193909 -0.259437 0.0955237 -0.254957 0.219491 0.00722707 -0.0137814 0.231008 -0.188659 -0.0119493 0.374801 0.224652 -0.30091 -0.0265091 -0.143764
internal_weight=0 1.3155e+06 800625 533467 267159 514879 177000 356467 474269 229656 150913 69227.4 306015 244613 240353 310276 129868 230657 103760 40609.5 221256 160429 52316.9 65434.9 162657 111565 205328 106762 52190.6 62019.7 50451.2 147663 39541.4 52932.8 40201.8 147265 65662.6 12765.7 90100.1 85825 21224.5 21465 23454.2 31092.3 68000.3 23357 42593 20124.5 49659.8 106579 78800.5 50826.8 47153.3 58063.2 75612.2 116246 14380.6 7207.77 49007.8 13011.9 14829.6 53595.2 17155.3 14631.2 68862.7 75083.9 180409 14487.9 39584.2
internal_count=4482923 2831704 2219274 1125392 1093882 612430 628702 496690 510582 209724 501816 88110 360094 300858 244141 1651219 611284 211781 249939 101848 217454 121614 178918 163548 131006 465154 176176 96019 111983 67020 136596 98179 68622 97179 70909 115147 115953 23435 401758 72434 51196 63396 38263 127722 80775 83404 102325 61563 77613 89812 67171 152760 251877 61029 345841 592066 33571 21090 37565 29455 38682 50762 63585 29415 31008 57625 1039935 55917 129899
is_linear=0
shrinkage=0.4


Tree=9
num_leaves=70
num_cat=0
split_feature=0 15 0 2 40 27 27 3 40 42 34 39 3 34 50 50 33 0 39 33 13 52 45 30 47 44 50 42 27 10 44 46 30 46 3 40 39 47 10 5 35 42 46 40 47 3 13 10 46 54 47 52 45 50 50 10 40 39 40 2 27 5 27 47 39 33 52 27 43
split_gain=220862 31095.8 21676 15045.7 14386.4 13115.8 8159.23 5846.31 5378.49 4758.17 4564.55 4024.08 3919.23 3894.55 3580.98 3474.43 3460.89 3430.94 3246.75 2952.76 2834.84 2653.94 2574.2 2498.92 2043.06 2035.86 1976.65 1863.98 1781.47 1725.03 1666.3 1631.29 1578.55 1481.94 1421.75 1372 1345.72 1339.16 1310.8 1240.81 1234.15 1233.93 1202.94 1125.39 1116.52 1107.72 1093.58 1063.73 1051.3 1049.44 1025.79 1021.91 1009.26 991.872 934.769 934.744 931.326 882.717 879.408 855.441 837.96 834.974 823.246 796.304 787.491 783.116 769.937 756.499 752.978
threshold=0.17912026494741443 0.012545178644359114 0.095051087439060225 0.69656279683113109 1.2001407695672512 0.99999999965915687 0.99999997727254963 0.66521707177162182 1.0817519372983837 1.2054367079485033 0.023723216062832047 2.4209845994063657 0.68697822093963634 -0.02903760588402399 0.53903080261834557 0.20348409202891696 -0.00039847706784348571 0.38491867482662206 2.4524275031814184 0.044209441211100202 0.08603545650839807 5.2343603622595154 1.5845071279481091 0.0035864216883456693 6.5000000000000009 2.2649023608803946 0.1913477980387617 1.1602343909739248 0.63474378841604517 0.034846255555748946 0.55763091046218771 1.2898876272928117 0.003846749124426421 1.3180844750015839 0.43350045382976538 1.8414099400484283 4.931177003560939 8.5000000000000018 0.037364218384027488 -0.0081306723877787573 -0.017510311625870273 1.1679111951941479 -0.020154574771561008 1.639284964015572 4.5000000000000009 0.71219789981842052 0.081606190651655211 0.017917293123900894 1.9158886668412203 9.5000000000000018 8.5000000000000018 5.2263417617402563 1.6436407036571818 0.50082742458896778 0.13995766124345901 0.020523993298411373 0.46532296995785905 5.2276314808436188 0.98727061607766331 0.4841944575309754 0.69024590419191256 -0.076899562031030641 0.99908163797091432 4.5000000000000009 2.3025781114747734 -0.015027236181742351 5.205531129459426 0.99999999999999978 2.378944343072857
decision_type=2 2 2 2 2 2 2 2 2 2 2 2 2 2 2 2 2 2 2 2 2 2 2 2 2 2 2 2 2 2 2 2 2 2 2 2 2 2 2 2 2 2 2 2 2 2 2 2 2 2 2 2 2 2 2 2 2 2 2 2 2 2 2 2 2 2 2 2 2
left_child=2 5 8 14 6 7 12 10 18 16 23 41 15 46 21 32 34 19 28 27 36 58 62 55 -17 30 44 48 -1 56 -14 38 51 47 -7 -21 -15 52 -12 -29 -11 45 -25 -16 -13 54 -6 -9 -5 -26 53 -4 -28 63 -8 -2 -18 67 -3 -32 65 -22 -20 -24 -41 -10 -30 -42 -31
right_child=1 3 4 17 13 9 11 33 60 40 31 26 25 20 43 24 29 -19 22 35 61 -23 50 42 49 -27 37 39 66 68 59 -33 -34 -35 -36 -37 -38 -39 -40 64 57 -43 -44 -45 -46 -47 -48 -49 -50 -51 -52 -53 -54 -55 -56 -57 -58 -59 -60 -61 -62 -63 -64 -65 -66 -67 -68 -69 -70
leaf_value=-0.077731350825149759 0.15724472339093978 0.14335383734195459 0.051702782239516 0.31455995409790222 -0.051974712792739547 0.062868708681080798 -0.19248160906051082 0.21066876912788124 0.040135441427667617 0.013005208195987886 -0.011960302720904765 0.015289562944807621 0.23751913110512521 -0.2394994286513466 0.22720449260651043 0.21006804760210351 0.025365522904254652 0.34337887480744095 0.1168246456167767 0.21660924214958355 0.045455559060671613 -0.17125472353063328 -0.065108151153550731 0.14626660033176495 0.079403812371200339 0.40129176191111882 0.27763755776806293 0.2717112771348989 -0.19507340294331135 0.16043717026942811 -0.029406707331914125 -0.11976546514531378 -0.1347319744728401 0.12659031547158867 0.21403030258909267 0.028483890324363256 -0.12762367780205863 -0.076661052322954198 0.14584343810598269 0.017466934629888149 -0.058730888027269182 -0.22504197136771398 0.011670842748397522 -0.021392606854197912 -0.12565818030255785 0.023658506904316229 0.17993476707712763 0.32495415925947968 0.1940015236670426 -0.088631880216770334 -0.22807870841557479 -0.098115545435659146 0.064272063228678955 -0.037778483239886751 -0.061386968360435425 0.27076656644677083 -0.10905310991949967 -0.0073512127731806742 -0.041457173465708853 0.11060541878094897 -0.2735587957063117 -0.11762411040861825 -0.049122801246330089 -0.18534384755761071 0.20193638562661584 -0.21416287728332187 -0.26226534087008962 -0.20253693157884933 0.01045067428113332
leaf_weight=13737.45944712311 21569.103825427592 10176.957357183099 19572.735132806003 95771.95461191237 11137.663739360869 21032.066210336983 24539.988490507007 23139.279341116548 2402.0789052098989 10579.632564589381 22500.489418454468 13328.603137850761 11753.949561998248 101377.17193224281 16478.550474911928 13946.106364510953 11868.637629374862 115171.04686766863 6719.5596584305167 12922.334976665676 6341.8571357280016 12998.363654501736 11915.884518064559 23576.554969102144 16908.363231621683 4229.1817612797022 4802.6813351362944 13772.676171325147 51969.20791593194 9120.4705023020506 10926.238525800407 12715.628595806658 28143.005312025547 13406.227146230638 19039.79767818749 12012.717409044504 20882.499486215413 7926.0217401310802 13429.720227435231 7885.2757145985961 7774.504573866725 28327.723968692124 19439.521186076105 3511.4205698668957 27399.583916462958 7326.9781966283917 4592.1542334184051 30545.814509302378 13334.994989439845 9161.8460014536977 21091.469920985401 11599.934714064002 13817.169093355536 15509.041675925255 13615.683543547988 25637.298942297697 26772.078581832349 6632.846075296402 6885.0773798972368 19192.252695098519 149100.6935159862 23705.596616193652 16593.941831178963 34879.972403950989 7050.8082967996597 9602.5285565108061 58919.305405825377 24555.341743931174 13094.32726957649
leaf_count=52438 59027 26620 70051 297088 22797 50849 49861 63486 9524 20897 52274 44012 41119 171877 48215 46970 31249 424959 35502 38145 20629 17004 50033 61590 61628 15506 18877 39342 161727 25843 36628 28466 84289 36631 51385 26578 79142 36021 35993 16443 12646 50014 46375 8097 106444 21894 14139 91717 39312 34652 114325 33075 54316 81702 42064 76635 53695 17367 12919 66441 372665 73396 80632 164739 20354 35769 132219 34544 30061
internal_value=0 0.165221 -0.140319 0.25411 -0.0808508 0.08342 -0.0263411 0.149006 -0.209192 -0.00633085 0.102124 -0.0948811 0.0401272 -0.173776 0.0521459 -0.004576 0.0434821 0.290469 -0.170075 0.253008 -0.193347 -0.0350149 -0.118797 0.155375 0.0864694 0.136516 -0.024065 0.275945 -0.213956 -0.0165773 0.109696 0.00329382 -0.0660522 0.245996 0.134772 0.126106 -0.220417 0.0607946 0.0469333 0.184966 -0.107874 -0.159383 0.0855154 0.183376 -0.0794534 -0.118418 0.0155254 0.275755 0.299855 0.0202283 -0.151645 -0.00394477 0.119478 -0.125719 -0.145785 0.218965 -0.0676831 -0.140779 0.0685891 0.0597063 -0.265341 -0.0830978 -0.00115516 -0.154796 0.104763 -0.163012 -0.230804 -0.168054 0.0721729
internal_weight=0 684402 846996 327972 454555 356429 286518 205960 392441 150470 138868 141084 145434 168037 50050.4 99332 100927 277922 231336 162751 152307 30060.4 106710 90222.5 40016.3 46101.6 67274.1 137816 124626 60855.5 41872.4 48645.8 59315.7 67091.3 40071.9 24935.1 122260 26545.9 35930.2 28708.8 49542.3 73810.4 43016.1 19990 40728.2 45482.7 15729.8 53685.1 109107 26070.2 83396.4 31172.7 18619.9 62304.9 38155.7 47206.4 38640.7 38962.7 17062 30118.5 161105 30047.5 23313.5 46795.9 14936.1 12004.6 110889 32329.8 22214.8
internal_count=4482923 1895806 2587117 1015076 1295842 880730 913862 552194 1291275 328536 360360 423503 490359 381980 112855 330665 243082 902221 873317 477262 345044 56543 526933 243627 143250 159694 259670 412539 346384 140848 144188 116733 187415 191834 102234 64723 251019 109214 88267 76139 85454 163833 107965 56312 150456 113819 36936 155203 336400 96280 410799 103126 73193 296474 91925 135662 84944 64557 39539 103069 417958 94025 116134 214772 36797 45293 293946 47190 55904
is_linear=0
shrinkage=0.4


Tree=10
num_leaves=70
num_cat=0
split_feature=39 1 40 43 1 41 42 32 0 13 47 40 1 43 43 41 39 29 45 33 27 29 41 52 43 15 29 29 29 33 27 54 47 50 39 2 29 41 13 13 32 47 42 32 45 30 39 27 54 39 31 0 13 32 0 15 3 15 50 47 39 43 29 13 50 45 43 41 50
split_gain=78343.3 31986 31818.7 18051 13205.3 10221.9 9587.22 8572.71 8378.15 6445.62 5706.1 4933.83 3878.35 3559.73 3333.34 3136.69 3111.81 3251.79 3087.76 2951.54 2812.01 2787.56 2916.54 2670.92 2601.41 2254.5 2125.57 2120.2 1893.26 1804.17 1763.51 1619.16 1604.28 2218.13 1591.71 1526.93 1404.69 1469.82 1367.25 1332.8 1292.63 1261.55 1261.28 1210.22 1203.38 1331.2 1183.5 1167.06 1166.67 1150.15 1045.42 1040.69 1023.46 989.951 924.566 870.008 844.369 836.576 829.507 821.015 812.945 811.288 802.908 802.391 800.655 797.104 793.743 790.506 771.903
threshold=2.0055638697233928 0.78488311171531688 1.8991107927353481 9.6562495340283991 0.72523599863052379 1.401428403889776 1.179110144499711 0.01104318257781319 0.34616757929325109 0.057394189760088928 4.5000000000000009 0.53245680059572931 0.82683929800987255 5.8139924803170517 6.670026380230639 1.4149654214357525 7.6659666015618386 0.0004328270059036589 4.9978566362825942 0.017512972147822829 0.93948750013096038 1.6306731067073632e-09 1.4115698907392358 5.2486513454937169 7.2279590897672543 0.0040265854913741359 9.6462432992899052e-06 9.4334993411669942e-08 9.6462432992899052e-06 0.054944226128882064 0.5146123849354044 7.5000000000000009 4.5000000000000009 0.73166997397408073 6.7841195488605655 0.67110332846641552 4.2927256542038153e-05 1.3980403901976393 0.059356139972805984 0.084933545440435423 0.01763183322602967 4.5000000000000009 1.3092937934845652 0.024197464418655383 1.6436407036571818 0.027468080742825019 0.95355300055362824 0.99999425067556214 5.5000000000000009 5.5942447087041565 0.022463578845695234 0.16991005837917331 0.063848860561847701 0.020884874504301324 0.22316491603851321 0.019755438901484016 0.58424326777458202 0.019755438901484016 0.26609541236863749 4.5000000000000009 0.63251596614877637 3.9795948017708223 4.5517380823569327e-06 0.076497718691825881 0.13995766124345901 2.8022423949005622 2.971307755929951 1.4321404566727718 -0.36151404703725015
decision_type=2 2 2 2 2 2 2 2 2 2 2 2 2 2 2 2 2 2 2 2 2 2 2 2 2 2 2 2 2 2 2 2 2 2 2 2 2 2 2 2 2 2 2 2 2 2 2 2 2 2 2 2 2 2 2 2 2 2 2 2 2 2 2 2 2 2 2 2 2
left_child=2 3 4 5 6 7 9 10 24 30 31 62 15 29 21 26 17 20 49 25 51 22 46 42 32 41 38 34 52 -4 -1 -2 67 39 -13 -27 37 -32 -6 68 -20 -7 -22 59 -18 50 -11 -31 -25 -5 -46 -12 -8 58 -17 -10 -24 -41 63 -21 -23 -40 -9 -43 -61 -16 -54 -3 -34
right_child=1 8 13 18 12 19 28 11 55 14 16 27 -14 -15 65 54 44 -19 40 43 23 60 56 48 -26 35 -28 -29 -30 47 36 -33 33 -35 -36 -37 -38 -39 61 57 -42 53 -44 -45 45 -47 -48 -49 -50 -51 -52 -53 66 -55 -56 -57 -58 -59 -60 64 -62 -63 -64 -65 -66 -67 -68 -69 -70
leaf_value=0.15760512626044501 -0.054947950881211995 -0.094058251254527755 -0.24070804544736549 -0.26257781248231254 -0.22193942024785815 0.094470562342172354 -0.23294908716765528 0.054473566032821621 -0.15058330934543918 -0.053937489378479586 0.24123310744459514 -0.19693175008133984 -0.23136933779380861 -0.30554606124605105 -0.20358760998641945 0.035039482127157622 0.11978294737806161 0.2203620640808068 0.090861495605980266 0.17864240910125018 0.11743351057402739 0.090685295214502096 0.10288539117516511 -0.12820090034974096 -0.17681608849210756 0.1621070367648979 -0.033930696368019368 0.022492140190480257 -0.0029672514679390475 -0.010682424291218654 -0.16410059309903993 0.065420380031149222 0.10618921649131857 -0.074798006295657582 -0.015430191183630707 0.01407112910101466 0.053929773606696679 -0.020634049775561918 -0.090632816786509196 0.35034435805070047 -0.14165746624656722 0.23792827882449408 -0.030745279495821867 0.13743110779674533 0.27355910566101549 0.084079189522280939 0.058593835126569085 -0.16914257636281332 0.026218195236872601 -0.071629172374061204 0.10590194454406757 0.060809388623477678 -0.062230385129433567 0.11118476353871286 -0.1001128880020227 -0.26717001642189975 0.22248605930496568 0.088364725901064409 0.1792642907873323 0.31856719232500408 0.20940721861127495 -0.20644196647757976 0.17890045407141877 0.37833392932198723 0.2358704538703186 0.006808289117744855 -0.19960599301801368 0.02164474153693649 -0.0099136625517674028
leaf_weight=5266.0232492163777 28814.946932964027 33147.566892318428 48402.280551791191 21329.95630056411 36369.930237665772 18586.826542124152 22000.014978855848 25691.469371683896 15957.873091876507 27437.770396538079 25457.998661123216 27157.181796938181 45554.053517997265 88240.290993705392 7090.4013989046216 29105.371971942484 19853.98709217459 40901.455763556063 10029.294180832803 16804.064438976347 110588.51387627423 12449.602176733315 27105.587209716439 10394.926395960152 15995.704687930644 20183.860935732722 26961.665031954646 17637.556303136051 14307.392826989293 10652.106896221638 31140.640260480344 47060.819098353386 20172.211737528443 19862.844742521644 10862.422846786678 25020.105620019138 9845.6388758048415 18133.886234916747 38123.531951911747 4425.9128517955542 6183.5471816137433 28306.626239649951 9987.5475572347641 15343.334195166826 51364.85963241756 8515.6137455925345 32846.336219675839 24979.32055477798 31652.190998636186 6677.0550809875131 6804.4834479540586 6464.4003079086542 16877.16805563122 13397.138981819153 11219.129277132452 29432.609858348966 14648.636872410774 3556.8998858556151 28343.736303150654 37711.231189347804 36913.42266856879 13074.966282762587 12341.87217887491 8607.1430052369833 38258.173519328237 4804.7336805537343 11302.664452344179 13157.237778194249 16701.317975893617
leaf_count=14405 72331 95881 90255 34439 58574 52625 30222 67518 115575 58663 72186 43414 204992 196967 14366 69701 61438 111708 25972 48588 284583 29616 63696 14292 37161 56776 79302 39210 31867 22542 46036 128139 55375 90602 24638 91876 20321 33720 117556 15424 12170 77838 20960 40036 157035 19879 76634 41953 62740 12786 18927 26041 38182 34515 57338 274501 40418 17048 83109 105906 96475 33861 34927 26228 113848 12883 23459 46353 54321
internal_value=0 0.0772816 -0.101402 0.111494 -0.0496441 0.12629 0.00458755 0.0927609 -0.0787385 0.0431602 0.118396 -0.016065 -0.128723 -0.249375 0.0854292 -0.0985063 0.141651 0.11778 -0.136747 0.192056 0.0961963 0.101459 0.0636599 0.0748587 -0.0259993 0.154171 -0.132287 -0.091974 -0.13155 -0.190353 -0.0639927 0.0196665 -0.00424161 0.0363987 -0.14516 0.0802409 -0.0837853 -0.111367 -0.162533 0.0857091 0.00198183 0.188506 0.105133 0.241939 0.206562 0.232351 0.00732313 -0.12186 -0.0118813 -0.217169 0.254002 0.204797 -0.168148 0.210687 -0.00248341 -0.226252 0.144922 0.234015 0.231065 0.259189 0.17953 -0.12027 0.0949344 0.270753 0.276963 -0.118335 -0.117444 -0.0611128 0.0535154
internal_weight=0 958745 664853 786334 492579 742114 292170 491552 172410 227683 397862 93690.5 200409 172274 163296 154855 321986 235447 44219.9 250562 194546 151401 102038 162623 127020 142445 114530 55657.2 64487.2 84033.7 64386.2 75875.8 111024 64719.2 38019.6 45204 59120.2 49274.5 87568.4 44856.3 16212.8 97241.5 120576 108117 86538.9 66685 60284.1 35631.4 42047.1 28007 58169.3 31922.4 50179.8 78654.6 40324.5 45390.5 41754.2 7982.81 65257.5 92773.5 49363 51198.5 38033.3 36913.8 75969.4 11895.1 28179.8 46304.8 36873.5
internal_count=4482923 2878919 1604004 2076678 1252287 1991311 630963 1259966 802241 507233 1050259 209707 621324 351717 392751 416332 849789 592510 85367 731345 480802 365502 239411 382575 412165 422967 289293 107262 123730 154750 114482 200470 375004 232770 68052 148652 100077 79756 209991 142168 38142 274315 305543 308378 257279 195841 135297 64495 77032 47225 175962 98227 91863 221690 127039 390076 104114 32472 187175 268342 126091 151417 102445 104066 219754 27249 61641 142234 109696
is_linear=0
shrinkage=0.4


Tree=11
num_leaves=70
num_cat=0
split_feature=39 47 5 43 27 30 54 43 52 27 51 52 46 0 46 0 54 40 40 0 45 40 31 13 27 52 41 15 54 29 27 50 50 39 54 39 31 27 40 52 32 52 0 45 32 40 42 45 31 52 39 49 54 42 54 50 3 54 41 43 27 46 41 27 39 39 50 39 50
split_gain=54688.4 30119.9 16966.1 11829 11821 9220.02 7685.37 6323.42 5928.7 5773.09 5230.77 5097.2 4308.91 4176.54 3303.16 3134.69 3072.29 2995.08 2955.94 2827.9 2620.04 2481.33 2082.02 2051.85 1997.71 2073.49 1940.42 1913.67 1804.33 1718.39 1715.76 1581.87 1451.46 1434.59 1419.49 1409.09 1309.1 1287.47 1273.68 1347.76 1238.51 1154.36 1134.82 1131.33 1100.47 1100 1074.13 1070.75 1070.65 1059.99 1046.56 1046.28 1027.21 999.762 980.523 965.857 964.868 903.875 880.627 880.334 853.212 835.361 822.138 808.522 800.337 798.442 794.524 793.186 791.485
threshold=4.1810278780784627 6.5000000000000009 -0.066107034683227525 2.4404464369938066 0.82507349721059819 0.01050227237880978 8.5000000000000018 2.1533015670609221 5.1634153881964773 0.75543231341282169 2.7030105594233986 5.2465335265257869 1.4978781649025767 0.22101256996393207 0.75041493898726586 0.24840779602527621 9.5000000000000018 0.74890875874484186 -0.93593797825092484 0.15457803755998614 2.8551573739545115 2.1598017923777433 0.0092290767202879865 0.091162089258432402 0.79134402585352315 5.2507605965879796 1.4288310686073185 0.0035845844540745024 8.5000000000000018 0.0054082515945463377 0.98731967534581788 -1.2226027582224333 -0.075764334866888813 1.535934469129099 8.5000000000000018 1.5573308940267785 0.0056125398612861888 0.99969213968847448 -0.86898087579711303 5.1685739034447318 0.011712976744768974 5.2617945933420591 0.28256781399250036 3.0577742003308992 0.0077870082150646985 0.25055790331679634 1.1679111951941479 2.8551573739545115 0.0084843930620611633 5.0889523843492261 1.8532044330347757 1.3533932455658066 12.500000000000002 1.2359970100858086 7.5000000000000009 1.1013379550076785 0.62128072977066051 5.5000000000000009 1.4149654214357525 5.5490130768107049 0.99999980912853081 2.2760865221836171 1.3881800725852533 0.99999998119104638 7.0168452914807089 1.9028203219105855 0.27866770163018512 1.271459509837741 0.94631561332422243
decision_type=2 2 2 2 2 2 2 2 2 2 2 2 2 2 2 2 2 2 2 2 2 2 2 2 2 2 2 2 2 2 2 2 2 2 2 2 2 2 2 2 2 2 2 2 2 2 2 2 2 2 2 2 2 2 2 2 2 2 2 2 2 2 2 2 2 2 2 2 2
left_child=1 2 15 9 21 13 8 14 27 -4 11 38 16 17 23 28 42 37 -12 30 41 33 60 34 -8 35 29 49 -1 54 -7 -29 -32 56 -6 -26 58 -2 -9 59 62 61 -11 -39 -24 -37 65 -14 -28 -5 51 -22 -27 -21 68 -25 -3 -13 -16 67 -19 -10 -34 -30 -45 -18 -46 -40 -20
right_child=5 4 3 6 7 19 24 10 20 12 18 57 47 -15 36 -17 46 22 26 53 50 -23 44 55 25 52 48 31 63 -31 32 -33 40 -35 -36 45 -38 43 39 -41 -42 -43 -44 64 66 -47 -48 -49 -50 -51 -52 -53 -54 -55 -56 -57 -58 -59 -60 -61 -62 -63 -64 -65 -66 -67 -68 -69 -70
leaf_value=-0.13852947228212176 -0.26724257178056171 0.04837139466477719 -0.22593922144206663 0.23777200358412159 0.020621328997059523 -0.17064647057034699 -0.023957542035510117 -0.010393344481139892 -0.057128749080724954 -0.082068329033303827 0.0095275654471740114 -0.062225051816550296 0.053998663336105028 -0.27974090184675116 0.14029569666071645 -0.23693202252179568 0.027625872256710073 -0.19805687665739535 0.16834948115446383 -0.17373904784053254 0.16917382507324644 0.14046394376134957 -0.073616143937672518 -0.16983845590782831 0.22921034997464951 0.019622567451600292 0.085255022219055149 -0.066272976797416158 -0.097116558445012005 0.12272577104711001 -0.028737165190313982 0.11169063685744907 0.089081821497706104 -0.18951569056692436 0.12440943071162813 0.0073739202716499091 0.2259558460095363 -0.2228796798029723 0.26158629385540427 0.13315372312258161 0.23998158092958888 -0.14322971357611922 -0.20697012053976033 -0.052241825751970596 0.027985377567693634 0.16727819137779346 0.1122469791305417 0.21305915030710293 0.24447085972621269 0.11121779209250426 -0.024933646441321469 0.0082451865424272627 0.19352688015531858 -0.0027490080720063621 0.30408368375142952 -0.0057310071600983553 -0.12990823948915545 0.053924289900610461 0.0069454634729021721 0.30144379480626249 -0.090737159163834624 0.094670397256893746 -0.12235087454927529 0.020859229021744075 -0.17514939332498658 -0.099076605284639838 0.2666002183415811 0.11189398302727618 0.30028757480772661
leaf_weight=68985.247765369713 31494.951939769089 10116.278639018536 26858.66417504847 17953.570494808257 51907.133704923093 7092.6605243161321 10454.830334208906 5979.6531815752387 58250.221091091633 89014.988440804183 9794.8638315945864 19584.181534357369 31843.633281901479 58163.971341654658 30848.383205987513 35765.196530789137 23197.188136532903 21300.8390737921 19391.94097442925 23934.605649009347 14894.679088130593 7199.773414939642 11428.948960661888 9276.3333645313978 53729.445153772831 21328.623093925416 18301.431256771088 14050.174563609064 16272.5573855564 12954.929762393236 25932.737705007195 18494.543498016894 15823.117892570794 20142.32215590775 35612.691723875701 9217.4934465810657 22527.931465126574 32024.697659358382 10682.329130984843 46211.057399272919 7654.3570974841714 25067.317546539009 13443.016632348299 15959.992398433387 6769.063177369535 27684.133275978267 14920.381965436041 8636.2244685441256 10805.461071804166 26206.12539602071 18420.335930123925 11496.708132438362 7317.0620998367667 7141.8523785769939 70612.297203846276 15156.311415359378 9315.6324092745781 23681.316881261766 10731.467253953218 17447.320771805942 27114.928924411535 6427.4295593723655 3603.9892117008567 21600.04421389848 18308.30369425565 12098.698689542711 3358.5266198590398 12292.546128302813 11849.502209767699
leaf_count=114427 219605 35696 145790 29115 121485 34493 32529 15640 82096 172719 26047 18039 63644 490693 61186 226751 54863 127432 27356 137375 24025 14698 53844 29376 76077 25573 42597 26493 42489 24055 78392 51841 57261 104255 80215 27417 42564 195577 16506 65171 20964 26464 87757 79096 19537 50512 26586 17508 16577 36765 40724 15572 10228 29640 105157 45107 41679 26134 30357 25267 129637 10824 18425 36440 113766 45899 11946 28405 20543
internal_value=0 0.0425447 -0.0111732 0.0201395 0.116313 -0.143973 0.066799 0.135571 0.0197235 -0.0521624 0.171925 0.114698 -0.0279816 -0.187308 0.0757568 -0.134364 -0.0587571 -0.155242 0.222491 -0.0365689 -0.0308507 -0.0753328 -0.0919742 0.0342593 0.143434 0.158133 0.236964 0.108484 -0.100004 0.260385 0.0140339 0.034762 0.0388023 -0.114674 0.0628903 0.187802 0.148175 -0.20048 0.167651 0.179977 0.103595 -0.0703066 -0.0984873 -0.168713 0.0112942 0.127423 0.022242 0.0880127 0.144471 0.162742 0.0480967 0.0991908 0.0641552 -0.134546 0.277862 -0.0681686 -0.0369309 0.00127518 0.105956 0.233426 -0.138019 -0.041994 0.0496935 -0.0297464 -0.118 -0.0157144 0.107431 0.181634 0.218494
internal_weight=0 1.21605e+06 703629 561005 512423 317108 340993 465649 211261 220013 289589 135878 193154 225924 176060 142623 152674 167760 153710 91183.3 134557 46774 69972.3 111952 129732 119277 143916 76704.4 106858 114809 60106.9 32544.7 53014.2 39574.2 87519.8 90631.1 64107.8 97787.9 92612.9 86633.3 27081.5 89745 102458 66293 21556.5 36901.6 50216.3 40479.9 29106.9 44159.7 44811.7 26391.4 28645.7 31076.5 101854 24432.6 19431.9 43265.5 41579.9 40422.2 48415.8 64677.7 19427.1 37872.6 34268.3 35295.9 10127.6 22974.9 31241.4
internal_count=4482923 2665240 1601128 1181021 1064112 1817683 566255 867784 343919 614766 457494 195162 468976 1441133 410290 420107 387824 950440 262332 376550 199705 196328 342396 276183 222336 189807 236285 144214 193356 177111 209535 78334 175042 181630 201700 154006 134107 608044 150989 135349 96650 119384 260476 388439 85327 77929 127348 81152 59174 65880 80321 39597 35801 167015 153056 74483 77375 44173 91543 70178 257069 92920 75686 78929 192862 100762 31483 44911 47899
is_linear=0
shrinkage=0.4


Tree=12
num_leaves=70
num_cat=0
split_feature=50 52 50 31 41 52 27 40 54 39 27 50 52 18 54 32 52 39 13 19 46 50 20 49 18 39 21 13 45 47 51 49 54 40 49 45 54 13 54 2 54 39 39 3 13 6 45 42 19 54 42 50 50 19 20 50 27 32 49 49 52 49 45 39 13 19 32 52 12
split_gain=79088.5 41125.9 23581 14412.5 10883.6 6627.6 6508.44 5805.97 5781.06 5636.87 5529.98 5189.32 5405.91 5157.37 4385.31 3620.39 3476.62 3441.3 3380.71 3286.39 3062.44 2899.44 2805.08 2640.65 2512.55 2441.31 2281.52 2181.4 2124.51 1950.84 1949.56 1886.05 1827 1805.29 1798.95 1659.47 1520.46 1500.74 1473.7 1453.66 1447.23 1439.4 1438.18 1436.35 1321.53 1313.2 1298.13 1288.76 1622.34 1275.45 1271.11 1251.77 1209.99 1202.67 1162.08 1115.19 1081.13 1080.62 1051.61 1022.87 1000.8 967.414 950.601 946.785 944.878 904.643 891.962 883.92 872.887
threshold=0.45946607698281389 5.1990098950436456 -1.162806731422968 0.0084843930620611633 1.4080678991094417 5.1061372419927347 0.69024590419191256 1.6627212500466568 5.5000000000000009 1.928618039228887 0.93100887018567569 0.99227956133202044 5.2071611524054129 1.5754298567771914 2.5000000000000004 0.0055854466381924815 5.260453383883779 2.3905719689887288 0.083140052855014815 1.740492641925812 -3.1819608581544294 -1.5804872538498722 1.6839765906333926 1.3162590791119293 1.7048147320747378 2.3311560300061021 2.3210597038269047 0.042704751715064056 2.2182741714960037 4.5000000000000009 3.6218392359557376 1.8225828743161248 5.5000000000000009 -0.22366969865846695 1.3347434465269141 4.6936902819017696 12.500000000000002 0.079605180770158782 4.5000000000000009 0.81762048602104198 7.5000000000000009 1.7126647286948895 5.8554955457534437 0.66150423884391796 0.078485868871212019 0.03769736364483834 4.4185387628453716 1.2918354540927857 1.5266280770301821 8.5000000000000018 1.2962833585111302 -1.4978850696403516 -0.19054642453408374 1.6759734749794009 1.7997430562973025 -0.23012566449149127 0.99732414881340525 0.018458595173258954 1.1836588566584465 1.1387304779255432 5.129866845250235 0.84719643156418412 1.8997121801593424 1.433102709713548 0.085366882383823409 1.688851058483124 0.0070035934288912383 5.2674286759198425 0.018221296370029453
decision_type=2 2 2 2 2 2 2 2 2 2 2 2 2 2 2 2 2 2 2 2 2 2 2 2 2 2 2 2 2 2 2 2 2 2 2 2 2 2 2 2 2 2 2 2 2 2 2 2 2 2 2 2 2 2 2 2 2 2 2 2 2 2 2 2 2 2 2 2 2
left_child=1 2 10 4 6 -4 41 25 21 38 63 12 -2 15 -12 33 23 18 40 22 68 27 24 35 26 31 29 -8 39 43 45 55 51 -5 37 36 42 67 -6 59 -14 -3 50 -16 56 -20 -25 48 66 -35 53 -22 -39 -10 65 -7 -11 -58 -30 -9 -31 -40 -33 -1 -15 -34 -18 -23 -17
